svm_type c_svc
kernel_type rbf
gamma 0.000244141
nr_class 2
total_sv 106
rho 0.54015
label 1 0
probA -5.51821
probB 0.0325626
nr_sv 51 55
SV
0.7568007911117267 5:1.9865974 11:3.4858823 15:1.0231187 21:3.6438265 27:2.1886888 29:1.9922192 47:2.1075532 77:3.0872629 84:1.2450172 94:1.9904735 95:2.5828767 102:1.0871718 105:1.0016354 108:0.39204827 112:2.0976338 114:0.86831975 115:6.38237 122:0.33749554 126:0.16514902 140:0.77271771 145:6.6671414 150:0.41193762 155:0.42352986 163:1.5000448 172:2.3237255 174:3.257535 184:7.0618081 190:3.1737614 198:0.017875165 199:0.037031054 200:10.316559 210:2.5832069 217:4.1699567 218:0.35153919 221:1.0809702 227:0.38964963 228:5.3377147 229:0.098936699 232:2.7721179 233:4.0112863 241:0.44020566 242:3.1478727 243:0.88111413 245:2.2438622 247:2.4894457 249:0.81959355 252:1.1060572 258:5.5592728 261:6.889142 265:3.8134899 267:5.6157937 276:0.067919672 286:0.8022759 303:0.55345696 307:1.0792005 308:0.29200077 310:0.4711237 319:2.2150605 321:0.63676655 323:1.5375276 340:4.367794 350:0.38349777 353:11.004357 356:0.39144006 365:2.7345583 367:1.5332708 379:1.1846815 385:1.0176134 388:2.9150903 391:3.2203712 393:0.54975033 394:0.39262089 397:1.1509757 420:0.40092227 427:1.4826846 431:2.4707491 432:2.2185316 436:4.5518546 443:1.06378 460:0.30621317 462:0.056877375 463:4.7949862 464:1.1639706 471:1.5792978 472:3.8263483 482:9.08181 484:2.363627 485:2.8330865 486:0.22444516 493:0.29583171 502:2.7509148 505:0.070168734 509:2.0154517 511:1.3882375 515:2.0756161 532:2.111398 533:1.9224215 537:1.4863914 549:1.8430194 552:4.666925 554:0.1011008 557:2.0060129 560:0.89703357 572:0.19181493 574:7.4760375 576:2.4196939 577:4.5555682 581:3.1789372 583:1.2321653 595:1.1409239 601:3.5886574 610:3.621249 611:2.4020832 612:5.7664933 615:0.28072676 635:0.80225378 639:0.29233658 641:3.7642961 642:1.9192183 646:2.7797308 652:1.2937975 653:7.1059661 654:6.5374961 657:6.6847181 664:4.9131508 672:3.3452008 679:3.3272116 682:7.3229127 686:1.530152 691:1.0230749 698:3.8389807 703:0.42363703 705:3.2001066 706:0.31053084 709:0.73196518 717:0.19315061 720:6.2772365 721:4.9981523 723:1.8468609 730:4.1985016 737:5.9555144 740:0.40608209 742:2.4870887 748:2.3772955 755:3.5533044 777:2.9280653 782:1.9881471 792:0.21650995 794:1.7237824 798:2.9797616 804:3.0115006 808:0.18251613 812:2.5574911 817:4.2570214 820:3.655489 823:0.83262599 830:5.8011088 842:6.2452922 849:1.0491854 863:6.0821247 865:4.110074 866:0.96460962 868:5.8091154 882:4.4015222 889:2.28633 895:2.3114557 903:0.019530356 912:5.0456948 916:3.2153695 918:3.4083669 922:1.3304226 928:3.5923281 932:2.5999758 937:1.7861202 938:0.075608075 944:1.1244433 945:1.2009957 947:1.6766477 953:2.9452474 954:4.3708005 958:3.6409855 965:0.68131709 966:1.841437 972:0.2354987 989:6.7351818 992:0.79642653 996:0.98908484 1014:2.1736655 1015:0.83837652 1017:0.15408081 1018:5.7854242 1019:1.5282085 1023:4.6719818 1024:0.67981124 1031:1.1022421 1036:0.42305279 1038:0.34683716 1041:1.9089671 1043:0.1989029 1046:0.45502239 1056:0.32477283 1059:1.2283107 1061:0.28504112 1067:0.02486062 1071:2.2859545 1074:0.46531487 1075:3.843358 1077:0.028175265 1080:0.64028573 1081:0.22322765 1096:1.9564797 1099:0.53201175 1100:1.3670862 1102:1.6142111 1111:0.48731282 1124:0.95005453 1125:3.4643672 1130:1.3483878 1134:0.0074182749 1139:0.74531293 1148:0.61795014 1155:1.2038062 1163:1.0603299 1177:2.3209355 1182:0.67604071 1188:5.2792854 1192:2.5336456 1208:0.15876308 1215:5.2919917 1217:4.323956 1226:1.6657988 1227:2.4604154 1228:0.37250704 1234:5.5339446 1236:0.89588618 1242:3.2938187 1250:5.9913425 1253:7.3536677 1261:3.5455079 1269:2.1202028 1279:0.24843884 1283:4.1536765 1285:0.82398856 1286:6.2394261 1287:0.81432664 1291:0.97750747 1299:4.3752389 1302:0.99951106 1304:2.6259058 1306:0.90168905 1309:1.6610923 1310:3.7654481 1313:0.21421313 1317:1.1909858 1328:0.50787026 1332:0.19207099 1333:1.2154367 1335:1.0583818 1336:4.2745547 1340:0.0098753273 1342:1.5444803 1353:0.69090003 1357:0.53721434 1359:3.7423663 1361:0.41822481 1365:0.46498966 1368:0.65262663 1374:0.49801189 1375:2.8226287 1378:1.3577076 1387:0.24364823 1393:2.2181139 1395:2.2847109 1397:0.44103774 1400:0.20042719 1406:0.34024113 1408:0.26209503 1409:2.6439896 1411:2.4442587 1432:0.76545334 1433:2.8099542 1441:4.8689609 1443:0.62155658 1448:0.55734313 1452:0.69620407 1467:5.0420079 1471:4.7684011 1474:1.2729816 1476:5.2382474 1484:6.3433943 1485:1.7129538 1488:0.34594369 1493:0.93127841 1504:0.75061417 1509:0.3314926 1511:5.3151097 1514:2.1634002 1519:0.61203372 1520:2.5807838 1525:2.500268 1526:0.096130848 1528:1.4225854 1536:0.79114181 1537:1.1905843 1543:0.70105302 1546:0.36537233 1550:5.3725715 1556:0.72113055 1558:1.512696 1560:2.190666 1581:1.2916892 1586:2.7745996 1600:0.12515523 1604:3.3266134 1605:2.2535558 1613:2.81722 1620:0.10403628 1624:0.0027939975 1625:1.3332077 1626:2.5959516 1627:0.19952208 1638:0.61932874 1653:1.4818547 1659:5.0285068 1665:1.4185063 1674:0.3124935 1678:0.054440528 1696:3.0585792 1703:0.77156866 1705:9.8559313 1708:1.5554537 1710:5.0275168 1720:1.2757803 1733:2.3774698 1735:3.4654737 1737:5.8676124 1746:3.0832829 1747:0.52427101 1752:2.9866467 1754:5.9876757 1758:1.0395706 1762:7.4827323 1769:1.3430448 1774:1.5590389 1775:0.71748006 1778:0.2210604 1780:2.3728497 1782:0.56252486 1790:0.37332308 1794:6.8587708 1795:3.1553953 1799:0.086811408 1803:1.7082531 1806:1.8095987 1812:0.7066533 1817:2.0503209 1825:1.2442839 1826:1.3114681 1833:0.26033419 1842:2.5679057 1851:2.0434668 1855:5.2378035 1887:1.4970585 1889:1.0494772 1893:4.873538 1904:0.58122778 1908:0.2093251 1911:1.7583904 1918:3.6999068 1923:1.2078134 1926:5.2977848 1928:5.7082872 1936:0.27284804 1943:2.4154506 1952:0.63766491 1955:1.6765624 1963:0.70559901 1966:2.1250899 1968:2.7851479 1969:0.58047307 1972:5.6254368 1977:1.4706534 1990:1.3983917 1997:0.16174351 1999:2.9346263 2000:4.3278432 2008:0.40421695 2011:1.9145707 2012:1.9006231 2021:0.53336811 2034:0.11907673 2035:0.321621 2039:1.3794093 2042:0.60101503 2048:0.62093961 2049:4.7201896 2056:0.34164619 2066:0.50834739 2068:0.25735003 2069:3.2782352 2070:4.8098664 2079:2.3859122 2097:1.5453585 2100:1.9042788 2102:3.0259364 2106:2.2666965 2116:0.092556208 2120:0.092678994 2125:2.3744509 2135:1.378123 2143:1.4236858 2144:0.22481023 2148:0.4905743 2152:3.0973988 2162:0.02909559 2187:0.79968631 2188:2.2354515 2189:0.63541591 2193:0.68525457 2198:0.28425804 2203:1.9574345 2205:1.5944606 2218:1.0421413 2221:0.49134207 2224:5.0494318 2230:3.2024398 2234:1.6772382 2235:0.30620536 2237:1.5426048 2239:5.5479412 2240:2.9050851 2249:0.12100629 2254:1.178213 2255:4.5290961 2272:5.2272968 2275:4.8341346 2285:3.1159816 2286:0.042666495 2303:0.076045007 2305:0.87154925 2307:2.0385418 2318:2.0153067 2321:2.205297 2322:2.4375846 2331:6.0241766 2337:1.371575 2340:1.5467975 2342:2.5925641 2343:1.2415699 2355:3.0889795 2358:4.5695181 2364:1.1481861 2372:0.026319891 2375:1.3933547 2376:0.88799512 2378:0.016469598 2393:0.78320575 2415:0.51611143 2417:2.5991726 2431:3.5229769 2432:4.0974965 2434:1.9742575 2435:4.3624582 2437:1.4316967 2442:0.10853386 2443:2.0811067 2446:4.6487255 2452:1.8271804 2470:6.6739597 2477:0.26338929 2485:2.1062372 2486:2.3132577 2487:0.22908562 2491:4.9767995 2497:0.53690827 2504:2.4297454 2506:3.074517 2508:4.05827 2512:2.8063953 2513:1.8714604 2519:4.6532302 2520:6.6478906 2522:4.9691672 2526:1.6120181 2528:0.66337615 2535:0.069845751 2536:0.42725489 2545:0.48404667 2553:3.0772505 2554:0.89448929 2558:0.89848036 2561:4.4598055 2562:3.1564617 2563:4.3338842 2571:0.54739094 2574:4.6811509 2576:1.0995688 2578:1.1924481 2594:2.290647 2595:0.010582775 2596:1.5971265 2604:1.1444767 2612:2.5856211 2614:2.4079967 2622:0.51308531 2636:6.7864561 2637:2.0732896 2641:3.3020539 2645:0.45298791 2648:0.94272536 2652:0.44662592 2656:2.7272356 2663:0.52432513 2667:0.89058769 2669:0.52567983 2688:0.66348183 2689:0.54529417 2691:0.11503961 2692:2.1303127 2698:2.5101361 2714:9.1745472 2715:0.62226534 2719:2.1092963 2721:1.0149642 2723:1.7159617 2724:0.1949625 2725:3.430685 2731:2.1460021 2733:0.41094953 2735:2.004632 2736:2.1872001 2738:3.79196 2746:3.5388355 2752:6.8826241 2753:1.8520032 2758:3.2798831 2760:0.91045231 2761:0.98297811 2763:0.3113932 2765:4.2316651 2766:4.9517345 2767:1.0594486 2777:0.35623193 2778:4.6858749 2787:0.98284531 2789:2.1534843 2790:0.30158272 2792:0.90704352 2793:2.5608399 2798:2.409914 2802:1.4493768 2803:0.059655353 2805:1.0743971 2807:0.44542706 2809:6.8718643 2825:0.133616 2826:2.8062608 2834:3.0878735 2837:2.166923 2842:3.1822844 2844:5.8051772 2849:1.8283529 2851:2.5098047 2860:2.8177843 2875:4.6353054 2882:5.3171864 2887:1.6255146 2889:1.8844326 2904:6.8160958 2909:0.067308277 2916:0.43844578 2919:1.0326757 2924:0.4744164 2928:0.075115457 2929:2.8027215 2932:2.3504066 2937:5.9914904 2940:0.0061652064 2949:3.4660575 2950:0.33109826 2957:9.6101065 2958:0.29160109 2959:0.82552147 2962:3.9338846 2968:0.83080637 2976:3.5402865 2978:1.5305021 2981:4.4957972 2982:1.3808092 2988:1.6695259 2993:1.7220352 2994:0.93830752 3001:1.5844562 3003:1.8079317 3010:8.2491846 3032:1.4171031 3035:0.85843498 3036:2.9302044 3040:3.5180585 3042:4.9540572 3047:5.8168192 3048:4.6245861 3051:1.610381 3052:3.0429783 3056:3.0833483 3057:0.12462649 3062:0.91671336 3065:2.4164402 3081:3.9246759 3087:0.43604326 3089:0.052972019 3105:5.2722654 3123:1.6579611 3129:2.4201016 3137:2.6343184 3144:6.7710452 3151:0.57198465 3152:6.17591 3159:4.7727308 3161:0.81546509 3162:4.8057084 3174:4.4843297 3182:5.2334843 3184:4.480576 3197:0.85134673 3199:0.50130785 3200:3.9044468 3205:3.2259045 3228:3.7539127 3231:0.97998595 3233:6.1300278 3237:1.5713855 3245:1.0780905 3249:3.9984725 3257:1.4246131 3259:0.42351809 3260:2.7043545 3265:0.0029834509 3267:4.9404469 3275:0.66790348 3276:0.4812136 3282:1.185292 3284:0.75343817 3286:2.1333253 3293:5.0109777 3298:0.053839356 3299:1.2354016 3302:2.7610121 3310:3.1591828 3321:4.530066 3324:3.5770965 3333:0.52888471 3334:1.8786194 3345:0.54133594 3347:0.88001919 3349:4.4326601 3361:0.069561571 3363:2.1543393 3367:0.93423796 3377:3.1653121 3382:0.079887331 3383:1.170559 3387:0.95342398 3388:6.2985187 3390:4.9554572 3392:4.9164138 3394:3.3724923 3399:1.5438414 3404:0.6343168 3422:2.5999811 3424:1.0765338 3425:1.9996073 3428:5.9093318 3436:3.6976645 3447:0.33848372 3448:1.4373882 3449:2.6280277 3457:2.0045793 3467:1.2914549 3476:5.7552991 3478:0.64475912 3489:4.9416428 3491:1.8820057 3493:4.6733513 3494:0.55352414 3496:1.5897475 3500:0.27787918 3502:1.2150993 3508:3.9576654 3528:0.51935351 3529:2.7629945 3539:4.5470939 3548:1.6686523 3549:1.5911478 3554:2.5762644 3555:2.8779502 3560:6.7721696 3564:7.1661882 3569:0.13474354 3575:0.62419969 3579:0.77244818 3591:5.4725976 3593:0.99018449 3601:1.5855231 3603:3.4308753 3604:1.720186 3608:4.8413758 3609:3.6100562 3617:2.307121 3629:1.6778173 3631:5.2539372 3644:2.7528274 3652:0.79099464 3666:0.30876094 3667:4.7405872 3669:5.625133 3670:1.6040838 3680:0.63739234 3683:4.2375784 3686:2.1683915 3687:2.0285859 3691:0.55693072 3698:0.3392238 3703:6.7381573 3710:2.3799748 3711:0.02290231 3712:1.6518289 3714:0.77226949 3722:0.83018219 3724:0.65856344 3732:1.455923 3735:2.4641232 3753:7.4764552 3758:3.5007057 3763:1.8672655 3766:1.4251084 3767:2.5415111 3769:0.77531248 3783:2.7461164 3789:4.3645439 3793:9.7289667 3795:1.3108075 3797:7.7381921 3812:2.3636734 3813:0.93991625 3814:1.2260404 3817:0.40288553 3818:1.0542781 3819:3.2247319 3831:4.5193963 3834:1.2845743 3836:0.71160007 3838:5.7189803 3841:0.11625892 3848:0.96962219 3850:0.79111791 3860:3.2752192 3862:1.9280266 3863:1.9128067 3864:1.4460403 3872:1.5759583 3876:11.238537 3877:1.7645047 3878:1.3037713 3891:1.9402939 3892:0.068882525 3893:1.9300225 3901:1.9388936 3906:6.2869081 3914:2.3746233 3915:1.386855 3920:0.29914609 3937:2.0250025 3951:0.22845513 3952:0.38250417 3957:1.5590953 3963:5.0143852 3969:5.5086589 3974:1.111376 3978:5.5752935 3981:3.1075745 3988:5.2437625 4000:3.7359066 4001:2.8373451 4005:3.5868881 4007:0.077934846 4008:6.0992212 4010:1.9957384 4018:4.7392912 4021:4.1762037 4023:3.4530551 4024:1.3246156 4031:2.5893879 4032:4.865582 4034:2.6188681 4042:1.1542276 4046:0.31114295 4055:8.2774763 4058:0.057941735 4059:4.1821718 4067:3.7191045 4070:2.9609563 4071:0.77730083 4074:2.4501011 4084:1.4795585 4085:0.62620687 4088:0.30589083 4089:1.3847852 4090:0.13950643 4095:0.16954406 4096:4.5289001 
0.1842777232044015 5:0.7876209 11:1.3615429 20:1.5611235 21:2.0308576 25:1.2022619 27:5.4920902 29:0.16556628 39:0.24822631 47:2.191797 69:3.8031058 77:0.82032377 84:0.63718605 95:0.33542112 100:2.4670289 103:1.9728277 110:1.9844366 115:6.7305822 125:1.1304961 126:0.019501582 145:3.8856769 147:2.4470716 150:1.0227312 154:4.191802 156:0.3766301 163:2.484951 172:2.9142537 180:1.347571 184:4.9563532 188:0.51477164 190:4.0616727 196:1.6409547 199:0.39693707 200:6.1330166 209:1.2996745 210:4.1063886 211:1.7427903 217:2.8607793 218:1.3130414 220:0.10227421 228:2.1990597 232:0.93805861 233:1.61216 246:0.63979197 249:2.2441089 258:3.4580417 261:6.1737804 265:4.6390214 267:2.5672109 276:1.3452613 283:3.2836058 299:0.22472963 310:0.35148305 321:0.30217516 323:2.9067085 326:1.1120701 328:1.6393576 338:0.73842686 340:2.683604 342:0.88391501 353:6.395968 358:0.34008637 360:0.66119981 365:2.0027645 388:2.3815806 390:0.23478836 391:1.2345061 393:0.48714182 394:1.942637 397:3.1147966 431:0.7627036 432:2.216486 436:0.63981092 460:1.4391971 462:0.17059821 463:2.8722715 471:1.2405249 472:2.0123737 473:2.9651217 482:8.4915857 483:2.6168642 484:4.0992846 485:1.7011878 502:1.1353055 505:0.15320718 511:3.2431602 515:1.2774259 529:2.2290139 533:0.24637172 536:0.14259717 537:0.88391221 552:3.5170171 555:0.22282182 557:4.3972669 560:4.0382967 570:0.75655639 572:0.28320614 574:5.9787078 575:1.7416604 576:0.41634437 577:1.3246216 580:1.952485 581:2.8224761 593:0.050335303 600:1.1626077 601:3.3156133 609:2.725548 610:2.1796477 611:1.7449398 612:6.5357318 615:0.14883697 617:0.13512613 635:2.5930653 639:1.1497771 641:5.6102786 646:3.1152153 651:0.1777302 652:0.36109519 653:6.1251111 654:5.226182 657:4.0990839 660:0.11645344 664:5.6909666 672:4.3117232 679:1.5652659 682:6.6034727 686:1.1340225 698:1.0906359 701:0.38905692 703:0.6479547 705:5.375926 711:1.6397268 720:6.6944532 721:2.1389055 723:2.9966221 726:0.26992339 730:4.2986712 737:2.7454031 738:3.3203087 739:0.59209871 740:0.35248056 742:2.5734415 748:3.4736216 755:3.5474706 774:2.5347641 777:4.3200617 782:1.7175947 788:0.14546448 791:2.1091461 798:3.0085647 804:3.4450228 805:0.6788193 808:1.6244934 812:2.0936027 817:3.753896 820:1.5522518 839:2.2791948 842:3.0374544 849:1.8409652 863:7.1597848 865:3.4383945 866:0.73327577 868:5.4775152 874:1.2402152 882:2.5425365 889:1.8453583 895:1.747056 912:2.6236863 916:2.2210689 918:2.9817286 922:2.8589201 928:3.801805 932:1.6154943 933:1.0574253 937:0.29753864 944:2.656338 945:1.3584553 947:1.5834312 953:4.2377014 954:4.6894665 958:3.8754499 966:0.87845814 989:3.0720167 996:3.1472464 1001:0.70287007 1002:0.32448018 1013:2.8552661 1014:1.2078683 1015:0.45150495 1017:0.25638849 1018:3.0505378 1019:1.0402831 1023:3.6334064 1024:0.24387091 1032:0.92931604 1041:3.3816285 1043:0.026257604 1045:0.081973076 1059:1.0054929 1061:2.8379631 1075:0.53969276 1077:2.2937689 1081:0.36462015 1087:0.40212831 1090:0.45360887 1096:1.4326081 1102:0.96816456 1112:0.32825232 1125:0.48298672 1130:2.8767827 1134:2.2612929 1139:0.40711325 1140:0.87874126 1148:0.83834243 1153:0.44839007 1155:1.7259234 1163:0.93104446 1168:0.12525296 1177:3.2811649 1182:1.2582498 1188:2.2200727 1192:2.8479989 1194:0.36370605 1208:1.1698403 1215:3.1229508 1216:0.17655432 1217:7.1091104 1220:0.81604731 1226:2.5451448 1234:2.4993446 1236:2.3744183 1238:1.3094531 1242:1.3262753 1250:4.2488847 1251:0.46077386 1253:8.3773394 1260:0.020754516 1261:1.1002721 1265:0.71700346 1269:4.3781686 1275:0.68690962 1279:0.12902319 1283:5.3248677 1285:2.9823861 1286:5.4863358 1287:1.0105058 1299:1.8305342 1302:2.58389 1306:1.0901359 1309:1.5890284 1319:0.21373034 1320:2.1029003 1325:2.2152429 1336:2.8983853 1340:0.82721442 1342:2.1029043 1357:0.11460099 1359:6.1318722 1368:2.8028989 1371:0.15011674 1375:3.7857037 1387:2.6784492 1393:1.9490821 1395:3.5441859 1397:1.0095868 1400:2.6465063 1406:1.7485523 1411:0.023043901 1414:0.46503425 1432:0.15345064 1433:5.279007 1435:1.0067147 1441:5.0721259 1449:0.29163396 1452:0.13007566 1458:1.3160782 1467:5.096034 1470:2.7416301 1471:4.3708277 1474:2.396821 1476:2.291913 1484:3.6273668 1490:0.0091916695 1511:1.2880174 1515:0.22498313 1519:0.56053782 1520:3.4297907 1522:0.73916942 1523:0.54391432 1525:1.9789524 1526:1.0233724 1533:0.51934773 1536:0.79391456 1543:0.91567165 1550:3.546622 1556:1.94169 1558:0.42733309 1560:3.1574349 1567:1.8962123 1572:0.48520613 1577:0.59941322 1586:3.9319899 1597:1.1365894 1602:0.68294001 1605:0.1782572 1613:4.5614519 1617:1.0215747 1620:0.36312562 1624:2.7425237 1625:2.5776551 1626:3.059576 1628:0.31669822 1629:2.1286969 1653:5.0793982 1658:0.43955517 1659:3.4801991 1665:0.1999471 1674:0.93940449 1678:3.0079553 1686:0.13936806 1696:5.2265296 1705:9.5750046 1707:1.1435117 1710:1.9285519 1711:1.0001947 1730:2.981679 1733:0.64145589 1737:3.966167 1744:2.366426 1746:0.4136591 1752:1.0568064 1754:3.9627528 1758:3.4287834 1762:6.8812895 1777:1.2720183 1780:1.8756964 1781:0.0058949888 1782:1.0926051 1788:3.7764423 1794:7.5991015 1795:2.0441782 1803:1.0565848 1804:1.0878909 1806:3.3177826 1811:0.50766987 1812:2.4386287 1817:1.9686663 1818:0.38183197 1825:1.0608923 1826:2.5289931 1842:2.427177 1848:1.0661957 1851:3.6089222 1855:1.1862769 1861:0.5255419 1871:2.3900442 1872:1.8466815 1878:0.02775076 1881:2.0969417 1889:2.4058404 1893:3.4529054 1904:2.9452162 1918:1.3946854 1925:0.65402871 1926:2.5169778 1928:2.8446558 1943:0.31243643 1955:3.4922853 1959:1.1039358 1966:2.3644474 1968:2.7995334 1972:5.8403697 1975:1.5412852 1976:1.6126701 1982:0.98714924 1990:3.0250003 1993:2.3979068 1997:3.335742 1998:0.066980831 1999:1.4902468 2000:5.6613998 2011:1.6235771 2012:1.7870569 2021:0.59597307 2031:0.77951092 2042:1.3032224 2048:1.9237008 2049:2.0115454 2068:1.7506139 2070:2.6224813 2092:0.45084727 2094:0.07541886 2097:0.057740033 2100:1.0749104 2102:5.7937765 2106:0.78286839 2107:1.3739754 2116:0.79774517 2121:1.567113 2123:1.0262082 2125:1.430521 2135:2.3319025 2144:0.80214578 2148:2.5466776 2152:0.89295751 2155:1.0087787 2160:3.5164442 2162:0.58969814 2166:1.8049397 2167:2.4801896 2186:4.0294313 2187:1.5516474 2188:2.6461573 2189:1.1703176 2193:1.1657749 2203:3.8273554 2218:0.60001391 2224:3.7339008 2230:2.2421989 2234:0.92205083 2235:0.63362533 2237:0.740336 2239:3.9692059 2240:5.0969787 2253:0.031691223 2254:2.0613215 2255:3.9672167 2262:0.99846923 2267:1.1859641 2270:0.56415462 2272:4.2907534 2275:3.2560635 2278:0.87703645 2280:2.7196374 2285:3.2645369 2286:1.0705971 2298:2.3389642 2302:0.88625491 2303:1.0881464 2305:1.4034426 2307:2.5869551 2318:1.2726359 2321:0.44908795 2331:5.8086166 2337:1.3319285 2340:1.0961928 2342:2.037859 2344:0.97203279 2348:2.6199462 2355:2.5729403 2358:1.9971485 2364:8.1345682 2376:0.6781562 2377:2.0139544 2378:1.4121211 2381:0.71460271 2386:2.4651194 2393:1.7809254 2406:0.097763196 2408:0.27916068 2409:0.62860376 2417:1.6001915 2431:4.4858785 2432:4.8747196 2434:0.1068455 2435:4.6347027 2441:1.2617714 2445:0.24597943 2446:7.7692156 2452:2.6839001 2470:5.7033429 2485:1.9569324 2486:0.83167326 2491:3.3839951 2499:2.2067418 2504:0.73141551 2506:1.9383848 2508:1.83557 2512:1.2980422 2513:1.5390944 2519:1.7553604 2520:6.1823139 2522:3.715601 2528:1.1620669 2531:3.0605536 2545:3.5367265 2554:0.58193421 2561:5.4327874 2562:3.7842879 2563:3.2290249 2570:0.94231784 2574:3.6016474 2576:2.3332279 2582:0.61442435 2594:3.9511383 2595:4.3219709 2596:3.0740602 2599:0.098417617 2612:0.72097301 2614:1.7947654 2623:1.8185569 2634:2.9409692 2636:2.4694779 2637:3.4024925 2645:0.20601195 2646:0.89368933 2648:1.3591733 2656:3.119374 2663:0.37510118 2667:1.669907 2669:0.074620381 2672:1.8272202 2676:1.1889118 2687:2.3837514 2688:3.3542881 2689:1.9464608 2692:1.8307527 2698:2.4047987 2714:6.2766995 2715:0.24317048 2719:2.6058397 2723:0.5336709 2731:1.7154967 2735:3.4110179 2736:3.1059797 2746:3.2514658 2750:0.89898187 2751:0.091354698 2752:7.0477486 2753:2.1193407 2758:5.727778 2761:1.0538933 2765:3.1362178 2766:5.0648308 2767:2.6379433 2778:5.2932515 2787:1.801616 2789:0.68777227 2792:3.5968509 2793:0.60448843 2800:0.14077142 2802:3.1195374 2805:0.28458416 2809:3.3280008 2812:2.9721723 2816:1.0173235 2826:3.1933286 2834:0.31365353 2836:0.52792501 2837:0.99611503 2842:2.3945856 2844:2.2947378 2849:4.175539 2870:0.081985839 2875:0.85755819 2879:1.5308301 2882:2.8221788 2885:2.4534471 2889:0.13459742 2894:2.4955907 2904:4.6806192 2909:0.21293715 2929:2.1023846 2930:0.065416992 2932:3.7578804 2937:2.5207283 2949:6.4899459 2957:8.2866268 2962:2.0858822 2968:1.1865778 2976:3.9237092 2978:1.2962979 2981:5.057642 2982:4.3712807 2986:1.7288688 2988:0.24917078 2993:2.7888927 2994:1.803939 2997:1.7929432 3001:4.989233 3003:2.7613754 3010:6.6956511 3012:0.8867048 3019:1.0187259 3032:4.7054591 3035:0.33543074 3036:0.34964508 3037:0.1562283 3039:1.5948005 3040:1.7041802 3042:2.0431287 3047:7.4044418 3048:0.72206688 3051:3.6364129 3052:1.4282469 3056:4.660224 3059:0.2690562 3062:1.7234986 3063:0.21337648 3068:1.1471512 3078:0.13331588 3081:1.1304195 3089:1.0304415 3094:0.12750605 3105:4.0015883 3107:0.1749036 3110:0.43490103 3123:3.3078201 3129:4.0122585 3133:0.82006937 3137:4.0229445 3144:6.3498678 3152:4.875958 3155:0.26874706 3159:6.1584177 3161:0.11209288 3162:4.7868543 3164:0.064548194 3174:4.6447754 3182:6.0686102 3197:0.15394071 3198:0.15747803 3200:2.1321006 3205:1.559239 3223:1.4012786 3228:0.45735884 3233:6.1455793 3238:1.0535376 3249:1.5718356 3259:3.2820892 3260:0.17909178 3267:5.8479943 3275:1.0781515 3276:0.18679282 3282:2.4590106 3284:1.6875799 3286:0.93823898 3290:0.66908914 3291:2.3505993 3293:6.2294369 3298:4.0229878 3302:1.8811688 3310:5.108995 3314:1.8394759 3319:0.83797073 3321:1.4314151 3334:3.5308995 3338:0.70047158 3345:1.6429038 3347:0.74943048 3349:4.1362271 3355:0.66000283 3360:0.56691998 3361:3.4717743 3363:1.2875949 3367:0.11569145 3377:1.0918736 3382:1.5307034 3383:0.01175791 3387:0.9740411 3388:7.9820037 3390:3.5238202 3392:4.8110938 3394:0.326832 3422:2.4509716 3424:1.3532643 3425:3.8168311 3428:2.6154339 3436:2.5585878 3438:0.73006523 3443:0.68893349 3446:1.1448902 3448:4.4449511 3449:4.1095777 3450:3.3814983 3457:1.5000423 3460:0.52891117 3467:0.31548011 3468:0.55588776 3476:0.16654734 3478:1.3651575 3489:2.0498445 3491:0.17795989 3493:3.7995243 3494:1.1564863 3496:1.3370422 3504:1.5468731 3508:3.2380266 3528:1.1591164 3529:2.3431745 3539:2.8048069 3548:2.4742234 3549:3.3054121 3554:0.21454531 3555:3.3919554 3560:2.9723067 3564:3.3445561 3569:0.59260917 3591:3.1610682 3593:0.76565051 3594:0.00419043 3598:0.57797861 3601:2.093838 3603:2.2828143 3608:5.6288595 3617:1.1286285 3631:3.6469507 3632:0.29262987 3641:0.13869432 3643:1.6417922 3644:4.4325919 3667:3.5514231 3669:3.2478914 3670:3.1727903 3683:1.2685635 3687:3.0159264 3703:3.3954539 3710:2.2611227 3711:0.45308492 3712:2.1908541 3720:0.23530057 3722:0.35238537 3723:0.77730221 3731:1.3936408 3732:0.035859991 3744:1.2353773 3753:4.8376517 3756:0.12718588 3757:1.059058 3758:0.89984393 3765:0.1956165 3767:2.8633189 3768:0.041883603 3769:0.51083797 3772:0.90986872 3777:0.11690128 3778:0.50373799 3783:4.279727 3789:4.5363483 3793:8.4912558 3795:3.0307465 3797:3.5720696 3802:0.55053842 3811:0.5899961 3812:0.64459884 3813:0.2094408 3817:0.51993471 3818:3.3596337 3819:0.67366749 3831:2.9305861 3834:2.9345987 3836:1.5070375 3838:1.2994987 3841:1.4364264 3849:0.12298034 3851:0.046039194 3860:2.8241215 3862:2.3075771 3863:2.5715444 3864:2.0914073 3876:10.323941 3877:1.9736658 3878:1.8777598 3881:0.7200166 3886:3.352864 3891:0.51355314 3893:1.2064106 3895:0.30442923 3901:2.4979568 3906:6.0533257 3907:3.1766901 3917:2.0198572 3918:1.7812207 3937:1.0091233 3942:0.35247949 3950:2.5109837 3951:0.39505118 3952:0.67114449 3957:3.9569886 3963:1.6022267 3969:3.6073725 3974:1.0026038 3978:3.0084341 3979:0.74469304 3980:0.68527466 3981:2.1134424 3988:4.712224 4000:6.0929861 4001:1.0025246 4003:1.6475729 4005:1.32508 4008:0.39690936 4018:0.44528067 4021:6.3127198 4023:4.7304606 4024:0.89322197 4031:3.8845506 4032:2.5275714 4034:3.1435566 4042:1.6793112 4050:0.94821447 4055:7.041131 4059:1.512633 4067:0.78363496 4070:4.8923764 4074:0.64682531 4079:0.67739129 4084:1.3667388 4085:1.3204844 4088:1.4429736 4089:5.7077007 4090:0.34251118 4096:1.4873261 
0.06318187477271789 20:1.4072286 21:1.0733802 25:0.25886551 27:4.6954203 47:0.31501362 69:1.7411654 77:0.91093034 84:0.23066242 86:0.35638186 95:1.1486722 100:2.8705533 102:0.31290829 103:0.45613742 110:2.9725053 115:5.441422 145:4.5131698 147:3.7430029 154:3.9211433 163:3.1030111 172:3.4143441 180:1.7356061 184:5.9925871 188:0.77134752 190:5.1788878 196:2.3985252 200:8.6704235 209:0.90150708 210:5.7381377 211:2.1888881 217:4.6190972 218:0.3878634 228:2.4427066 233:0.56075978 239:0.41681802 241:0.048657089 247:0.198111 249:1.7556609 250:0.31256738 252:0.012583017 258:4.2031956 259:0.58613008 261:7.2256012 265:5.1283932 267:3.2705808 275:0.23253691 283:2.3758531 297:0.53821492 303:0.40358832 307:1.1481125 319:0.20936179 321:0.59931445 323:2.6501617 324:0.20914674 340:3.0130365 342:1.2714158 349:0.62780726 353:8.6960726 358:1.1290749 365:2.5091786 367:0.023401726 374:0.11121656 385:0.11902755 388:2.0199518 391:2.5114877 393:0.85006618 394:1.7300193 397:0.089208215 420:0.25146657 432:1.3192943 436:3.2616644 460:0.67534947 462:0.35831285 463:3.0632081 471:2.3578827 473:3.5118361 482:7.2166243 483:1.5613294 484:4.0760994 485:2.6530282 489:0.25312868 505:0.45373595 509:0.66046345 511:3.0706792 515:2.0572977 529:0.76952404 552:3.9813132 557:3.4673748 560:3.0872617 572:0.83634013 574:3.6952815 575:0.76743138 576:1.2703328 577:2.3759105 580:2.244823 581:1.4499189 583:0.34166029 601:4.2962241 605:0.10603215 606:2.067435 609:0.92686558 610:1.6164883 611:2.5886719 612:7.5798869 635:3.4150915 639:2.0645621 641:5.9241138 642:0.84769845 646:4.3208194 651:1.7238414 653:5.443068 654:4.1274757 657:3.4036725 662:2.3586643 664:5.2311091 672:4.438283 679:1.9579982 682:7.6407146 686:0.57099819 698:1.5941331 701:0.73043644 703:0.11074065 705:4.4846129 706:1.4641726 711:0.97709322 720:8.2739153 721:2.5829697 723:1.5419796 730:3.0681241 737:3.3991797 738:1.2774861 739:0.70596039 742:2.6096039 748:3.6053495 755:3.4049451 774:2.2912152 777:5.7068181 782:1.0293635 788:0.27714175 791:0.075169235 798:1.5935457 804:2.4876347 812:0.95429623 814:1.8499064 817:2.7664602 820:2.2882638 839:2.5882585 842:4.0477333 849:1.0595376 863:6.9640341 865:3.4473696 866:0.25926456 868:7.4319572 882:2.0901463 889:1.4370037 895:0.037811138 912:3.556056 916:0.34174865 918:1.5721289 922:3.1370633 928:4.3334179 932:0.22668922 937:0.93762606 944:3.0711062 945:1.4200505 947:1.2147293 953:2.4742088 954:1.7539151 958:5.0549531 966:1.8662941 989:4.7901649 996:1.6988926 1013:3.2315059 1014:3.4804792 1015:0.42347261 1018:4.3142161 1019:2.7746282 1023:5.4280744 1032:0.033346593 1041:2.112113 1061:1.5671443 1067:0.36172014 1075:2.5380211 1077:1.3206384 1080:2.6972818 1087:0.80172384 1090:1.2703999 1096:3.8703821 1102:3.8938613 1124:1.079724 1130:0.99958825 1139:1.1667519 1140:0.73980862 1148:2.2498267 1155:2.2706001 1163:1.3560882 1168:0.78292841 1169:0.27666306 1177:5.135591 1188:3.9858685 1192:2.6652193 1194:0.10090879 1215:2.4095111 1217:7.5958428 1220:0.30334967 1226:1.3669899 1227:0.82898736 1234:1.4725507 1236:3.4612999 1238:0.85194063 1242:3.7391248 1250:4.3408837 1253:8.8340311 1261:0.86361974 1269:3.5941737 1275:0.6648683 1279:0.61368746 1283:4.7898288 1285:3.34971 1286:5.3734336 1287:1.9943013 1299:2.6348798 1302:1.5641917 1306:0.19178367 1309:3.2447286 1319:0.67478949 1320:2.2635994 1325:0.33340427 1335:0.26201859 1336:2.6200602 1340:1.4278662 1342:2.0661924 1357:0.69237411 1359:7.9516692 1361:0.41254091 1365:1.4771366 1368:5.8187299 1375:3.5889983 1387:2.8524263 1393:3.045104 1395:3.7337246 1400:3.0223165 1406:0.99598473 1409:0.9295612 1411:1.0897661 1420:0.50269902 1422:0.68410206 1432:0.25954366 1433:6.699235 1435:0.70183825 1441:5.15695 1443:1.5914915 1452:0.97690701 1458:2.2769337 1467:7.4759803 1470:2.5448518 1471:6.1859875 1474:1.4885929 1476:1.6081765 1484:2.9625435 1511:2.212709 1513:0.70489079 1515:0.6013906 1519:0.192561 1520:3.3146234 1521:0.90784776 1523:0.36262786 1525:3.1737757 1526:0.79739803 1550:3.0192044 1556:2.4074683 1560:2.7290766 1567:1.4792601 1582:0.79480755 1586:4.7236843 1597:0.46480143 1605:0.39730614 1613:5.1965737 1622:1.6169336 1624:4.0222235 1625:2.7882049 1626:0.98573345 1628:0.43025577 1629:2.0538163 1653:4.0827675 1659:6.8585877 1678:3.9333391 1696:5.5600677 1703:0.18945032 1705:10.924379 1707:0.34615022 1710:1.3610865 1730:2.3984404 1733:1.8691512 1737:4.0133138 1744:0.8411991 1746:0.8277545 1752:1.0912806 1754:4.7186756 1758:2.5162735 1762:9.9349184 1775:0.14650303 1777:0.64335036 1778:0.24938698 1780:1.2394583 1781:0.064582467 1782:0.75151229 1788:3.5868704 1790:0.19633973 1794:7.4330025 1795:2.3972657 1803:0.90799356 1804:1.728039 1806:2.3112378 1811:1.5698762 1812:2.4642041 1817:2.2997632 1825:0.29599065 1826:1.1522365 1833:1.8394712 1842:0.43806055 1848:1.1217678 1851:1.7700394 1855:1.9452718 1861:0.011378556 1871:0.62650156 1872:1.2570702 1881:1.6976246 1887:0.61743999 1889:0.086670443 1893:2.1205468 1904:0.76383477 1918:0.21971211 1923:0.66577512 1925:0.87259853 1926:4.2564616 1928:3.6396694 1943:2.5691738 1955:2.3257983 1959:0.11269632 1966:2.9832735 1968:2.861819 1972:6.6430306 1975:1.5954111 1990:4.8324375 1993:2.004374 1997:4.3154488 1998:0.66887504 1999:0.58747709 2000:3.8574243 2011:0.13603505 2012:0.39742589 2021:0.75153899 2031:0.38499799 2039:1.7476611 2042:1.297327 2048:0.58301538 2049:4.8109756 2067:0.27156913 2068:3.1265273 2070:2.1890435 2079:0.55170953 2094:0.050617337 2097:1.0240879 2100:2.1830943 2102:6.1016412 2106:1.2047187 2116:1.2818005 2125:1.4241197 2128:0.10096413 2135:0.52920943 2144:2.022244 2148:2.0105793 2155:1.4024693 2160:2.3441579 2166:0.70097953 2167:0.6264841 2169:1.0412871 2179:0.53510165 2181:0.81513399 2186:1.6889246 2187:0.33775997 2188:2.3412447 2196:0.058893919 2203:5.3132463 2224:1.8323839 2230:2.1471167 2234:1.6200113 2239:4.2093072 2240:4.4401751 2253:0.22291556 2254:1.2211748 2255:3.6618516 2257:0.017368734 2262:0.17072783 2267:0.53422385 2272:4.7263932 2275:2.6354499 2278:0.94105124 2280:1.6923196 2285:1.5809001 2286:1.1723375 2298:1.1458519 2302:1.1876993 2303:1.7387996 2305:0.71384001 2307:1.6568729 2317:0.27599874 2318:0.7016933 2321:1.8585576 2331:5.2848692 2340:1.1698966 2342:1.4009914 2343:0.21787259 2348:3.9267433 2353:0.95606768 2355:2.5375743 2358:3.4531186 2364:6.2046766 2376:0.24370191 2377:2.9474211 2386:3.0613282 2393:3.1975551 2406:0.60983908 2408:0.52176565 2417:1.0345527 2431:5.6738973 2432:4.8101645 2434:0.17704329 2435:2.0204906 2441:0.17398496 2446:6.5179915 2452:3.8458109 2470:4.7750688 2485:0.43692178 2486:0.763345 2488:1.6232016 2491:2.4276035 2499:0.39152229 2504:0.96219867 2506:0.97595251 2508:2.490654 2512:2.6762064 2513:2.0695605 2519:0.46714938 2520:5.492228 2522:5.0904412 2528:0.51968729 2531:3.0857656 2545:2.8947253 2554:0.82075614 2561:4.2572265 2562:4.7009578 2563:1.8282944 2574:5.3272724 2576:1.462972 2594:2.133239 2595:0.69775426 2596:2.5086551 2604:1.3658209 2612:0.25403786 2614:1.9646417 2622:0.66053545 2634:2.9742005 2636:2.2199481 2637:5.5396514 2643:0.29281321 2645:0.066009164 2646:2.6819391 2656:1.9414654 2663:0.91023761 2667:0.42903256 2669:1.3953522 2672:1.8470188 2676:1.5243652 2687:1.1611817 2688:2.1443095 2689:1.8877194 2691:1.3818651 2692:2.6431677 2698:2.8027272 2708:1.2264911 2714:7.7592134 2715:1.0726652 2719:1.6271087 2723:1.9123938 2731:3.1518822 2735:1.9495546 2736:2.5505574 2746:1.7520348 2750:2.1016743 2752:8.3854847 2753:1.5446274 2758:4.398725 2761:1.3653095 2765:4.1622872 2766:4.807972 2767:1.2903954 2778:5.435802 2787:1.5738846 2789:0.45463806 2792:3.3162785 2793:0.50674486 2800:0.59245276 2802:1.784616 2803:0.032459788 2807:0.31369263 2809:4.3944869 2812:1.2516721 2816:1.5099082 2826:4.1438999 2828:0.21259616 2834:0.17084807 2836:0.28696305 2837:0.52548891 2838:0.71593499 2842:1.857893 2844:1.1605811 2849:4.395709 2853:0.089638084 2875:2.9225733 2882:3.3895659 2885:1.8520675 2904:7.5730109 2929:2.7353935 2932:4.6056914 2937:2.8611665 2949:4.3855457 2957:7.9314046 2962:0.48400575 2968:1.1646559 2976:3.4382331 2978:2.7950599 2981:4.7020116 2982:4.788218 2986:0.10575439 2988:1.1993937 2993:2.3895662 2997:2.055017 3001:4.1150837 3003:0.97799629 3010:6.9030333 3032:6.0143862 3035:1.2418216 3037:1.8030261 3039:2.1469138 3040:0.23646283 3042:0.80349469 3047:7.0037031 3048:1.8532187 3051:3.076376 3052:2.1655073 3056:4.090085 3059:1.5954316 3062:0.80186504 3063:0.014840245 3078:0.010645479 3081:2.0832198 3089:1.3948832 3105:2.3073232 3123:3.3159409 3129:1.8946538 3133:0.97549492 3137:2.3285754 3144:6.0778193 3152:6.4153986 3159:5.5107288 3161:0.99636197 3162:6.1068702 3164:0.57043874 3174:7.0069175 3182:6.4939466 3198:0.72456807 3200:1.741912 3205:1.4846132 3228:0.95012605 3233:6.6539431 3238:1.2683184 3249:2.8363662 3259:1.6652538 3260:2.6948938 3267:5.987236 3282:0.45050102 3284:0.3722378 3286:1.3016086 3290:1.8365129 3291:2.6955471 3293:6.2157664 3298:4.0100627 3302:1.8841426 3310:5.8194547 3321:0.62669003 3323:1.5666317 3334:5.4672775 3345:1.0703123 3349:4.4537644 3355:0.8272742 3361:4.1423454 3363:2.2452085 3377:1.2022691 3382:0.59900206 3388:8.5718899 3390:4.1339107 3392:4.2057314 3394:0.087683409 3404:0.36981028 3422:0.080565378 3424:2.0333359 3425:2.9583867 3428:3.7536933 3436:1.2538602 3438:1.151402 3443:0.6017282 3446:0.90798372 3448:3.8960965 3449:3.5242569 3450:2.5265496 3457:1.4558399 3476:1.4118503 3478:0.82169825 3489:2.393038 3491:1.1595564 3493:3.1998677 3494:2.0781217 3496:4.0487466 3504:0.94858503 3505:1.5059065 3508:4.9042449 3528:0.54314429 3529:0.98992938 3539:0.73346126 3548:2.8759515 3549:3.7309289 3554:0.59933472 3555:3.99612 3560:3.7229574 3564:4.4287734 3569:1.3598057 3582:0.28829902 3591:5.5522804 3593:0.049722761 3594:0.75415981 3601:2.9017465 3603:3.0334597 3604:1.1746293 3608:4.9838123 3614:1.0767748 3617:1.9819243 3629:0.14436218 3631:3.7459445 3644:4.6924877 3667:2.109633 3669:3.5892768 3670:2.6066129 3683:1.5989873 3687:2.937897 3693:0.57362562 3703:4.705205 3710:1.3248438 3712:3.5168159 3722:0.30586049 3723:0.29497838 3732:0.87104565 3735:0.3627508 3744:0.29997075 3753:3.7409499 3757:0.14084055 3758:0.13282967 3767:3.1271622 3769:0.11102349 3777:0.0092145205 3783:2.7161741 3789:5.896225 3793:8.1222763 3795:2.4777384 3797:4.4676719 3802:2.1518877 3811:0.71346951 3812:0.39734086 3817:0.76606464 3818:2.1213224 3824:0.53464043 3831:4.5235882 3834:2.0327358 3836:0.92958236 3837:0.62444311 3838:0.7886709 3841:1.6358144 3848:1.181648 3850:0.83769804 3851:0.77534199 3860:2.5292575 3862:1.9630798 3863:1.9293091 3864:1.7928839 3876:9.8829079 3877:2.2633016 3878:2.4286036 3881:0.074214339 3886:1.9885874 3891:1.276598 3893:2.3113711 3895:0.19543424 3906:9.1499157 3907:3.0007262 3917:1.0850774 3918:0.63509417 3937:2.5959542 3950:0.60370523 3957:1.6844482 3963:2.7611415 3969:3.4790311 3974:0.61346096 3978:3.6179547 3981:0.96236688 3988:4.5217214 4000:5.0893536 4001:1.2469753 4003:1.0568101 4005:1.5919867 4008:1.0576494 4018:0.52612919 4021:6.1190796 4023:5.3518758 4024:0.81098306 4031:5.1537261 4032:3.945724 4034:4.4141955 4055:5.6715155 4059:0.90981615 4067:1.0858639 4070:3.9020758 4085:1.305962 4088:0.87517107 4089:3.2289503 4090:0.23318815 4096:1.1292549 
0.3427746810003778 5:1.2580554 6:0.019680142 11:0.69423306 20:1.7493507 21:1.9540644 25:2.0510535 27:5.5888839 39:0.55894035 43:1.4164342 47:2.2980511 69:2.80762 77:0.40142071 84:0.20665169 95:2.0074275 100:1.4733404 103:1.1055614 105:1.8013439 110:2.9775951 114:1.1575037 115:3.8053706 125:2.4245079 126:0.72871673 145:3.2077575 147:4.4185224 150:1.2632244 154:3.795881 156:0.45733649 163:3.3763871 172:2.6323478 180:2.0128801 184:4.5866046 190:3.7976983 196:1.168067 199:0.73997903 200:7.53585 209:1.387522 210:4.8910823 211:1.4271656 217:3.9951375 218:2.3073618 225:1.4844035 228:1.5931815 232:1.4757462 233:0.5109362 241:1.5416437 246:0.98499113 249:1.4613829 252:1.4213405 258:4.558116 261:6.089294 265:3.7456665 267:1.6776656 276:1.9897468 283:3.1417994 297:0.5354917 307:0.18722376 311:0.055808332 315:0.60232103 318:0.077888928 319:0.55659229 323:2.6862965 326:0.22899032 328:2.2859883 340:2.1831219 342:0.62409377 348:1.494808 349:1.0922734 353:6.4601731 358:1.2836084 360:0.35395002 365:2.4693537 367:0.11502766 377:0.21281427 379:0.42196953 388:2.0496175 391:1.7399397 393:0.4929955 394:0.59440506 397:2.5366817 401:0.42965993 432:3.1705456 436:0.59035099 460:1.030537 462:0.37036106 463:3.3544769 471:2.1837447 472:1.7363535 473:3.6470747 482:7.9461827 483:2.5775695 484:3.4141276 485:2.647346 489:0.35903925 499:0.46122947 502:1.2848943 505:1.3171937 509:0.57225692 511:3.7909586 514:0.27924037 515:1.0901996 529:0.44378132 532:0.21491794 536:0.11274225 537:0.044216543 552:2.863142 555:0.88112944 557:2.9592729 560:2.8330956 570:0.2546545 574:5.9810457 575:0.38523149 576:0.19879179 577:2.4097106 580:2.2102506 581:3.2232714 583:0.034464598 600:0.31316623 601:3.4528716 609:1.6827382 610:0.3726455 611:2.7524366 612:6.9004836 615:0.2905027 619:0.50015306 635:2.0824957 639:3.0060434 641:5.8232956 642:0.84112394 646:2.0778792 651:1.7193841 652:1.789274 653:5.3609834 654:3.1666887 657:1.9401944 664:5.1077657 671:0.48899007 672:3.9472795 679:1.1527421 682:6.0372009 686:1.4089346 698:0.25450033 703:0.31353167 705:4.6215372 706:0.72417831 711:1.0834424 717:0.085759223 720:6.9606757 721:3.2499413 723:3.1394057 730:5.1371322 737:3.4496183 738:1.8885607 739:0.91653085 740:1.0899944 742:2.6458969 748:1.5398239 755:3.1672873 774:2.8910367 777:3.5940146 782:0.95396733 788:0.33403981 791:1.0850356 798:1.7988019 804:4.4874892 805:0.7356438 812:1.3612378 817:4.5764832 820:1.5440563 823:0.41972661 839:3.4007745 842:1.9123061 849:0.70810115 863:6.150166 865:4.8543272 866:0.51674891 868:6.142921 874:0.73512256 882:2.2226324 889:1.0210884 891:0.9452492 895:1.7400683 912:2.6792054 916:1.322356 918:1.6495932 922:3.2693648 928:3.2554181 932:1.3050627 933:1.2031744 937:0.90643936 944:1.4591955 945:0.72699976 947:1.3325332 953:5.14785 954:2.5326803 958:4.1280527 966:2.3719134 989:1.8868648 996:1.156135 1002:0.079167217 1013:3.5220475 1014:2.9747252 1015:0.96839631 1017:0.043331265 1018:2.6422207 1023:3.6873705 1024:0.73033929 1032:1.5257438 1036:0.4955838 1041:3.785974 1045:0.045774102 1061:1.6387717 1064:0.15621924 1071:0.98785943 1075:1.6648884 1077:2.289047 1080:1.136981 1087:0.89744371 1090:0.70786637 1094:1.3069507 1096:2.6634867 1100:0.29055247 1102:1.9012076 1124:0.14005542 1125:0.61722952 1130:1.5132211 1134:1.4874978 1137:0.10109383 1155:2.3356328 1163:0.3660014 1176:0.28182516 1177:4.1531768 1182:1.9244187 1188:2.734628 1191:0.2132183 1192:1.9653883 1194:0.21452215 1215:1.5728419 1216:0.15084499 1217:7.1719069 1220:0.15312478 1226:2.9117501 1227:0.2469718 1233:0.65493035 1234:0.87407565 1236:2.4986358 1238:0.72841293 1242:1.371985 1250:4.8660183 1251:0.09177129 1253:6.7201972 1261:0.23103589 1269:3.8624198 1275:0.53505373 1279:1.1680446 1283:3.446491 1285:2.4424376 1286:5.4324222 1287:2.2738965 1291:0.39776653 1299:2.0701571 1302:2.9713776 1306:0.65653765 1309:2.0159943 1310:0.35978079 1319:0.078158915 1320:2.5181522 1325:2.1218979 1328:0.068855189 1336:2.503355 1340:1.2282497 1342:1.2665832 1343:0.14970642 1359:5.4910355 1361:0.63882059 1368:4.5152111 1371:0.15632109 1375:4.2633419 1379:0.035762429 1387:1.4466438 1393:1.1274298 1395:2.598958 1397:0.52420062 1400:0.57371914 1406:1.9767227 1409:0.82304275 1411:1.1280363 1420:0.87188536 1422:0.92663777 1432:0.24572842 1433:3.6287358 1435:1.9997584 1438:1.1036962 1441:5.2459564 1443:0.21407153 1452:0.82157087 1458:2.4634202 1467:5.2674346 1470:3.8817437 1471:6.1827264 1474:0.56064337 1476:0.8602742 1484:4.8903728 1511:1.3621497 1513:0.45756412 1515:1.1361778 1520:3.6181991 1522:0.82668686 1523:1.3596666 1525:2.3321252 1526:0.91490239 1533:0.31704429 1536:0.041813821 1543:1.3046833 1550:2.3510008 1556:2.0297639 1558:1.0490841 1560:3.6108365 1567:2.1430278 1576:0.28407007 1580:0.4297815 1581:0.50088567 1586:5.3295374 1590:0.030034274 1597:1.1103349 1600:0.10468598 1602:1.7237301 1605:0.57919127 1606:1.4890096 1613:4.3026791 1617:1.0437503 1618:0.40245765 1622:0.26084405 1624:3.4576359 1625:3.0193114 1626:3.3369272 1629:0.022914734 1653:3.7588191 1657:0.071544707 1659:3.4337208 1676:0.25336796 1677:0.37125888 1678:1.911896 1686:0.97385043 1696:3.4810464 1705:8.8093691 1707:0.58935374 1710:1.8971097 1730:3.1491261 1733:0.38025022 1735:0.28035581 1737:5.2939496 1744:1.3833177 1752:1.0832703 1754:4.4197168 1758:2.0303442 1762:6.362597 1772:0.81212592 1775:0.52559561 1777:2.2633541 1778:0.74857104 1780:1.6090357 1782:1.2492814 1788:2.6847718 1794:6.5287137 1795:1.5395149 1804:1.6469193 1806:2.4033098 1811:0.25818992 1812:4.2252679 1817:2.7031426 1825:0.61118716 1826:1.1064022 1833:0.54080153 1842:1.2131748 1848:1.1828344 1851:2.7735612 1855:2.2988663 1861:0.0097071975 1871:3.4260867 1872:1.3079634 1881:2.0214493 1889:1.6598487 1893:2.6999354 1898:0.052029938 1901:0.53218251 1904:0.72506571 1911:0.3223536 1918:2.495224 1923:0.72639406 1926:3.5326054 1928:3.1975114 1943:0.61566448 1955:2.2501149 1959:0.46604082 1963:1.094066 1966:1.7262448 1968:3.2556982 1972:7.6510305 1975:2.06756 1976:1.5257602 1982:0.24423137 1990:2.9019744 1993:2.3350089 1997:3.4723473 1999:0.48409349 2000:5.4688439 2011:0.58870929 2012:1.0515622 2020:0.8604126 2021:0.4073779 2026:0.42441601 2031:1.52053 2042:1.1658633 2048:2.5811899 2049:2.9222589 2068:0.26032314 2070:1.2046316 2079:0.9818362 2092:0.77018321 2097:0.24213812 2100:0.61983335 2102:5.1408844 2106:1.1873274 2107:0.62147623 2116:1.7486769 2121:1.2428 2125:1.9490218 2135:2.1219368 2137:0.49958232 2144:1.2546653 2148:0.82315171 2155:1.6221257 2160:2.9830141 2166:1.8323076 2167:1.7795136 2186:4.3433242 2187:1.3908825 2188:1.6117293 2189:0.85164237 2203:4.3756638 2224:2.514569 2230:1.0697083 2235:0.019579947 2237:0.59296799 2239:3.5548189 2240:5.6332936 2253:0.5803436 2255:2.5930693 2262:0.47392678 2267:1.1540382 2272:3.4296589 2275:2.3543661 2278:0.22686325 2280:0.89720023 2285:0.84320301 2286:0.84995919 2297:0.1403586 2298:1.8177214 2302:0.79703301 2303:1.0482144 2305:1.3277882 2307:2.5751619 2311:0.44419253 2321:0.50179964 2331:4.4230614 2337:0.38608971 2342:1.5516279 2343:0.55061048 2344:0.66297281 2348:3.7392309 2353:0.84410214 2355:1.4458179 2357:0.055156618 2358:1.7446413 2364:4.757318 2376:0.032024145 2377:2.7661517 2378:0.61560988 2386:1.7212685 2393:2.5034308 2406:0.2086527 2409:0.42816347 2417:2.4435763 2431:4.2241712 2432:3.8090711 2435:4.4072042 2441:0.81254101 2443:1.4858056 2445:0.08634451 2446:7.4539742 2452:3.5622463 2470:2.9647498 2477:0.46606636 2485:0.64456779 2486:1.1990328 2488:0.91375434 2491:2.6420872 2499:2.4984331 2504:0.80076426 2506:1.2390184 2508:1.4953583 2513:1.650449 2519:1.5057479 2520:5.0263791 2522:4.7144918 2528:0.70589834 2531:2.5635207 2533:0.26233661 2545:2.5090511 2561:5.0904331 2562:4.2304382 2563:2.6216204 2570:0.79658371 2574:4.5973377 2576:3.5242043 2578:0.065090507 2594:2.7744806 2595:3.4541888 2596:2.0930667 2604:0.19152577 2612:0.15957814 2614:1.8477693 2623:0.41281772 2634:2.3752728 2636:2.2822161 2637:3.170856 2645:0.096730798 2646:2.086591 2648:0.5067265 2649:1.4367659 2656:4.1535516 2663:0.29601294 2667:1.1353072 2669:0.22774503 2672:0.72439361 2674:0.73236871 2676:0.51320636 2687:2.485517 2688:3.4307253 2689:2.0515537 2692:2.3219447 2698:2.7684176 2714:5.5234256 2715:0.54010427 2719:3.2295699 2723:0.69877386 2731:2.4715128 2735:1.7645168 2736:1.5542223 2740:0.63168919 2746:3.4024282 2750:2.1409316 2752:6.4872079 2753:1.4570602 2758:4.8337703 2761:1.5476501 2765:4.0083084 2766:5.4710445 2767:2.1595583 2778:4.9485226 2787:1.408561 2788:0.25785765 2792:2.6581559 2793:0.27783251 2802:1.6934509 2805:0.93587506 2809:4.0013118 2812:2.4426062 2816:1.1584926 2826:2.7890711 2834:0.85464215 2836:0.59348041 2837:1.6743776 2840:1.4689636 2842:2.4849634 2844:2.3026876 2849:2.9303961 2860:0.043170437 2873:0.19066998 2875:0.94412738 2879:0.51495904 2882:2.807373 2885:1.5396796 2889:0.05691433 2894:3.8580334 2904:5.1936936 2909:0.77353859 2917:0.29064071 2929:3.4901137 2930:1.7969387 2932:3.8051953 2937:1.980865 2949:4.2116737 2950:1.5541654 2957:8.3516083 2962:1.7093383 2966:0.22048274 2968:0.44999379 2976:3.972821 2981:5.9660482 2982:3.8459525 2993:1.8156567 2994:1.5907009 2997:1.4559908 3001:4.3029847 3003:2.124918 3010:6.1968026 3032:4.6425605 3035:0.81260514 3036:0.19093882 3037:0.045591116 3039:1.4933982 3040:1.9371734 3041:1.2420051 3042:2.7456627 3047:7.1665792 3048:2.4172423 3051:1.6327531 3052:1.2532456 3056:3.4759619 3057:0.24759474 3059:0.42852464 3062:1.889142 3065:0.43785423 3068:0.10919814 3078:0.30951273 3081:1.1568615 3089:1.2285025 3105:5.3131528 3107:1.135859 3123:1.6116264 3129:2.5864081 3133:1.8038422 3137:3.5869071 3144:5.7349238 3152:5.7051072 3159:5.6849513 3162:3.4829159 3174:4.5161066 3182:5.0903287 3184:1.4520698 3198:0.44614291 3199:0.59736264 3200:3.0181406 3205:1.3982288 3223:1.3675916 3228:1.2927804 3231:1.1816324 3233:6.2686696 3238:0.15631443 3245:0.29818767 3249:2.4455111 3259:3.2208352 3260:0.68114221 3267:5.1498661 3275:0.41464001 3276:0.026864886 3282:2.200047 3284:1.2821701 3286:0.31566456 3290:0.83296853 3291:0.8338415 3293:5.6410661 3294:0.21370187 3298:3.3792512 3299:0.35043937 3302:1.0427104 3310:2.2531495 3314:1.776893 3319:0.93162298 3321:0.78751034 3334:4.1213875 3338:1.5703696 3345:0.15526232 3347:0.66848135 3349:4.2878628 3355:0.57244456 3360:0.13307956 3361:2.4493442 3363:1.259851 3367:0.76027989 3377:2.0469139 3387:1.2166576 3388:8.0795441 3390:3.5735707 3392:3.7440245 3394:0.16642746 3422:2.5468118 3424:0.40154451 3425:4.4019723 3428:2.2494478 3436:1.4138031 3443:0.95145035 3446:1.2393479 3448:3.0035317 3449:2.9082563 3450:2.2725916 3457:0.85117501 3460:0.89389908 3467:0.3621403 3471:0.58136761 3476:0.057140186 3478:1.6324078 3489:0.18698093 3491:0.13759029 3493:2.9997673 3494:0.70586932 3496:1.6199955 3504:1.247593 3508:4.522306 3528:0.46571925 3529:0.35893598 3539:2.6652849 3548:2.35357 3549:3.8734741 3555:3.7275162 3560:4.3460283 3564:2.1366031 3569:1.2014176 3591:4.1708298 3593:0.92238992 3598:1.318429 3603:1.9560481 3604:0.4499408 3608:4.2913623 3616:0.05975756 3631:1.6134844 3643:1.6151985 3644:2.9365728 3667:3.5918002 3669:2.4819033 3670:3.7402401 3683:1.2626895 3686:0.40087724 3687:4.5034509 3703:4.0624332 3710:3.4145398 3711:0.92391825 3712:2.8055167 3722:0.10321239 3723:0.24949914 3727:1.0930737 3744:2.1224339 3753:3.4548423 3756:0.14262792 3757:1.9736972 3767:2.8706362 3772:0.9660089 3777:0.64067435 3779:0.4335914 3783:4.5450211 3789:4.6491623 3793:8.0795736 3795:3.4919291 3797:3.8709702 3802:0.33567736 3810:0.14218351 3812:0.45661154 3813:1.0425375 3818:3.5955012 3819:0.46487013 3824:1.0721014 3831:4.6978812 3834:2.3835599 3836:1.219065 3837:1.5739698 3838:0.73081613 3841:1.5718951 3849:0.91652244 3851:0.32368797 3860:3.1213853 3862:1.9003669 3863:1.8632722 3864:2.0413473 3872:0.28593594 3876:10.062331 3877:2.3553584 3878:2.3997478 3881:2.2247076 3886:4.0119996 3891:2.6117964 3893:2.9916358 3901:1.8485315 3906:4.4166493 3907:2.6682792 3913:1.2533617 3917:0.96926427 3918:0.49002236 3937:1.6620805 3950:2.239274 3951:0.36633277 3952:0.091059968 3957:3.5290289 3963:1.8574548 3969:2.8979254 3974:0.68062544 3978:2.7793503 3979:0.55978692 3980:0.59953886 3981:2.0820198 3988:4.771297 3992:0.15740675 4000:6.556706 4001:1.2926226 4003:2.4441843 4005:3.221853 4008:0.79000962 4018:0.13801001 4021:6.3469911 4023:3.652544 4024:0.80239677 4031:4.3317823 4032:2.9582825 4034:3.3994534 4050:0.90632474 4055:6.3353796 4059:0.88635349 4067:1.826665 4070:4.5346451 4071:0.76860619 4074:1.9239993 4079:0.25811458 4084:1.7777804 4085:1.4693391 4088:0.4754712 4089:3.9302738 4090:0.17332759 4096:1.5019112 
0.1353603195751792 4:1.0784173 6:0.72846097 11:0.98671603 16:0.11640024 20:3.8659115 21:0.61012995 25:4.6336517 27:3.6426973 29:2.2187066 39:1.2789738 40:0.094317004 44:0.074045449 45:0.36997747 47:6.7423348 60:1.7211521 69:3.7476673 75:0.81893539 77:0.93141145 86:0.4454374 95:2.5752265 103:4.3734879 105:2.7092161 110:0.56603712 112:0.85222578 115:2.0174596 122:0.0065251887 123:0.63790739 125:3.8520741 126:1.2892365 141:0.84161437 143:0.51513618 145:0.71863365 147:1.7308397 150:3.8619173 154:0.28529817 159:1.0733343 163:1.3134654 166:0.97545934 171:1.5702149 172:2.1608973 180:4.0910168 184:0.088353582 188:2.3217225 190:5.5227118 191:2.4563184 196:2.5438581 199:2.0180826 200:3.3596363 209:0.93216252 210:5.4283185 211:0.51153189 217:2.8516283 218:5.2378502 232:0.30173141 233:0.014245257 239:1.4832529 243:0.55958331 246:2.8549125 247:0.5455507 249:4.0734305 256:0.30767912 258:1.7938352 261:2.5533841 265:0.92697668 267:1.5508726 274:1.5329154 275:0.1492887 276:0.67589414 283:0.2156183 287:1.321269 297:0.49828354 299:2.8785501 300:1.4735836 310:1.0236546 311:0.46276683 312:2.6801758 315:0.93183863 321:0.17246333 323:3.7260315 328:4.1989436 338:1.0976006 340:0.7589761 342:2.313113 353:3.2643652 358:0.85360813 360:2.268995 374:0.065007247 375:0.52653658 379:3.2796998 385:1.6504083 388:2.4804788 391:1.0831354 394:0.73093003 397:1.0261261 401:0.039908141 409:0.38117227 412:0.12205228 420:1.4131551 434:1.8790408 460:2.4403093 462:0.23839664 463:5.9454384 464:1.7007293 468:0.98441482 472:2.9513917 473:3.2562516 482:4.4778771 483:0.87353003 484:2.6754725 485:1.9354014 498:0.033198714 505:0.72355527 507:0.75014704 511:1.858151 523:0.083069086 531:0.17719501 537:0.49796039 552:2.8893619 557:2.2366142 559:0.44361448 560:0.70980155 570:1.9401711 574:2.9312367 575:1.6642488 576:0.90708166 577:0.28723231 580:1.3761146 581:1.8462864 593:1.1151651 605:0.90613389 606:0.78750366 607:0.69206882 609:2.656491 611:1.2727909 619:0.996346 635:1.0601635 638:1.7369463 641:2.4072165 642:2.6161642 646:1.4500395 651:1.8705356 652:1.1316565 653:2.4833531 654:0.21626154 657:1.9630342 660:2.1539145 661:0.39000472 662:1.0477406 664:4.3342938 672:2.0436449 675:1.0127103 682:2.4837301 683:2.8203039 701:0.36456212 702:1.1912692 705:5.2098689 706:4.9696236 711:0.34803566 717:0.036768675 720:2.5120983 721:0.61286044 723:3.8770971 724:1.8901142 726:2.5371764 730:1.6532627 737:2.0881455 738:3.5802095 739:3.7538362 740:3.5049627 742:0.0051584989 747:1.1443748 748:1.8261133 749:1.0259433 755:0.13799998 757:0.1789017 764:0.70055807 766:0.012380093 774:0.097751066 776:1.4538081 777:1.6327646 782:2.0060031 791:0.29370546 798:0.39553457 801:0.075630665 808:1.9528644 812:2.354809 817:0.91450918 820:0.16316698 823:0.86950088 838:1.9197395 839:3.6905215 842:1.4292296 854:0.44398308 856:0.5590415 863:4.4354501 865:2.7738037 866:0.15130515 868:5.563313 874:0.22609355 878:0.40224138 882:1.0605365 886:0.87300658 895:2.507762 904:0.86178744 908:0.42771104 910:0.74078703 912:6.3331814 918:1.4525001 922:3.1273391 927:0.31018445 928:2.7357531 932:1.0777243 933:0.71484447 944:2.5239773 945:1.2942656 952:0.016266376 953:0.98185515 954:3.7702067 958:3.2429266 965:0.97642094 966:1.4595922 967:0.21839152 974:2.0572672 979:0.96308553 993:0.80129981 996:1.6442419 999:0.26805449 1001:1.1393101 1002:2.8401992 1014:1.8743819 1015:1.2173603 1017:1.4522831 1018:1.3263714 1019:1.2655406 1023:2.1176653 1027:1.3105146 1032:2.4033611 1036:0.70468998 1042:2.041513 1061:3.4693282 1062:2.6254838 1064:2.3125372 1069:0.85714525 1076:0.051201724 1077:3.6122961 1080:1.7335296 1087:0.46757215 1090:1.6590822 1094:1.733427 1095:0.73131442 1102:3.4045382 1112:0.84646612 1124:2.0729477 1125:1.9882317 1137:0.78372794 1140:1.7006052 1155:4.5678244 1156:0.98805606 1163:0.078444123 1168:0.3431775 1176:0.31019798 1177:1.446538 1189:1.5964434 1191:0.43525311 1192:1.1723069 1194:0.25572354 1216:0.53923643 1217:4.617579 1220:0.91734993 1234:1.2413515 1238:0.49530283 1242:2.549809 1246:1.5467706 1250:0.81878072 1251:0.56229293 1253:4.5549407 1260:1.79371 1266:0.9211247 1269:1.4322817 1281:0.88607275 1283:0.80060077 1285:2.9925442 1286:7.2780557 1288:2.8448913 1299:1.7591558 1302:1.8577234 1309:1.4890273 1313:0.31363663 1317:0.072558939 1319:3.891685 1320:3.5445824 1323:1.9977515 1325:1.6053326 1336:2.0461273 1339:0.51930881 1340:0.96832651 1342:2.2404869 1359:3.5418487 1363:1.170347 1368:4.0798879 1372:0.4858368 1373:1.8240006 1375:3.3866427 1387:0.85200417 1393:4.3010669 1395:1.4608707 1400:2.5047989 1402:1.1306846 1406:5.2752976 1410:0.087279767 1420:2.3380098 1423:0.072541475 1426:1.1253533 1429:0.012722321 1433:6.5768514 1435:2.8525844 1438:0.56393772 1441:3.9289327 1444:0.33259618 1458:0.90588039 1462:0.066639334 1467:1.2261413 1470:2.5321245 1471:2.4847708 1474:3.3699183 1480:0.64352852 1484:0.78196168 1489:2.2661738 1495:0.21176836 1496:0.44197154 1510:3.3318 1511:0.37308949 1515:3.2210915 1519:0.76769769 1520:1.5989763 1523:0.054039299 1525:3.8314924 1526:0.80198967 1543:0.44210899 1548:0.084883124 1558:1.7848095 1560:1.6452286 1567:2.2946587 1574:2.4931159 1577:1.1956495 1580:1.2494442 1581:0.89773202 1582:1.0051632 1586:4.2350502 1587:0.18068413 1588:0.40104839 1594:0.30188563 1597:2.5195384 1598:0.302524 1600:0.31869772 1601:0.73065734 1606:0.45562029 1610:0.4141584 1613:1.9646308 1617:1.6679475 1622:0.36579084 1624:4.0548053 1625:2.6050041 1626:0.81090659 1628:0.15992692 1629:0.32666814 1630:0.82062495 1637:0.0098110437 1653:3.8597982 1657:2.0212984 1658:1.3185827 1659:4.2243547 1663:0.45818642 1670:0.5983175 1674:0.1132749 1676:2.6594274 1677:1.6080723 1680:1.3043553 1696:3.8889911 1697:2.2775278 1702:0.37384892 1705:4.8004999 1707:1.0790651 1716:1.4707539 1730:4.0114594 1737:4.6012683 1742:0.63633209 1744:2.3991539 1745:1.7867637 1746:0.61898559 1747:1.2013304 1754:3.0109298 1758:3.2402489 1760:0.34879133 1762:6.0787435 1772:0.87200379 1778:0.069958806 1780:1.8329287 1781:0.80143726 1784:1.7258253 1788:3.4248943 1794:5.0638161 1795:0.56921786 1806:2.6053994 1811:2.0504243 1812:0.80317616 1820:1.9156396 1826:2.1616442 1834:0.020821899 1838:0.32470885 1842:0.58913863 1848:0.4439292 1849:0.074411988 1851:0.33795783 1855:1.3357011 1868:0.16293746 1871:1.2354705 1872:2.0470474 1881:2.2337093 1889:2.7146428 1896:0.79686248 1898:1.2385186 1901:1.3883684 1904:0.68733472 1911:0.56910259 1912:1.7966475 1923:0.0093655922 1925:2.8159556 1926:1.7508107 1928:0.22738968 1953:0.03276071 1966:2.3647487 1972:5.4587984 1975:3.1035674 1976:2.0341067 1982:2.0703301 1987:2.7105069 1990:1.923537 1993:1.9797989 1995:0.75509107 1997:4.3657699 2000:3.2969835 2006:0.69017732 2011:0.92419183 2020:0.89758956 2021:1.3074663 2024:2.4259448 2030:0.53019184 2031:2.4198272 2041:0.65455735 2042:1.8736897 2048:2.596945 2066:0.54953909 2067:0.69351721 2068:0.094785631 2070:1.8147978 2075:2.1732266 2079:1.4457585 2088:1.8609093 2092:0.93757766 2094:0.73973584 2097:1.8356591 2100:1.4247098 2102:4.7956691 2107:2.020366 2116:1.6497968 2121:1.0465276 2135:1.372983 2140:2.9844587 2144:0.86831766 2148:1.4491251 2152:0.06313622 2155:3.4444032 2159:0.10456255 2160:1.5216806 2162:1.5721419 2166:4.8540468 2167:0.2708942 2169:0.72551274 2186:4.5499859 2188:3.4062011 2203:2.9012473 2218:2.3711526 2224:3.9707272 2226:0.57150126 2228:0.57947898 2230:0.39885306 2231:1.2313452 2237:1.2859213 2239:0.4560577 2240:5.4121351 2250:0.57074606 2254:0.58345634 2255:1.3906839 2262:0.346771 2267:3.921495 2270:2.8901544 2275:0.63880712 2280:3.0717373 2281:0.97559702 2286:0.38494524 2290:3.1646192 2298:1.1418779 2301:0.19194344 2302:1.2192135 2303:2.2354074 2307:1.2572603 2311:2.4937401 2319:1.2794592 2321:0.079887897 2331:0.28548935 2333:1.0658841 2337:1.9240881 2338:0.60855085 2342:1.588846 2344:1.6162645 2348:3.1145375 2353:2.5257545 2355:1.412015 2358:0.63965577 2364:3.678093 2376:1.4709699 2377:4.4688311 2378:2.784173 2381:1.0516007 2386:2.2343662 2400:0.90109438 2406:4.0513592 2408:0.06163311 2409:0.97785544 2417:0.60578465 2418:1.044947 2428:2.0868356 2431:5.5589137 2435:4.6247773 2436:1.5054973 2441:2.7071824 2446:6.11796 2457:0.58663344 2470:2.1963689 2471:1.1191999 2477:1.3563792 2481:1.1257968 2488:1.2754713 2496:0.091856577 2499:2.3717179 2504:1.2890978 2506:0.41407213 2511:0.16252196 2513:3.9833875 2520:4.4427896 2522:3.5232282 2533:2.5227923 2536:1.1094375 2539:1.2883716 2541:0.26640272 2554:0.33968717 2561:1.7108546 2563:2.5431457 2570:1.1434965 2574:1.795203 2578:0.8081736 2582:0.52961934 2594:1.4765726 2595:3.7611747 2599:5.7143164 2604:1.4173261 2614:1.7429782 2617:1.0051001 2621:0.11462182 2634:2.8740683 2636:1.4617007 2637:4.3455353 2639:0.13387671 2656:1.5078275 2667:1.9579352 2668:1.4004476 2672:1.2537756 2674:1.7743607 2686:0.29056048 2687:5.4892926 2688:3.4893019 2689:3.1081977 2692:0.78032774 2695:1.6362931 2698:0.56245351 2708:1.8117343 2714:0.3086459 2715:3.0529404 2719:2.4932179 2735:1.8582952 2736:0.37834612 2746:1.8884988 2750:0.89120054 2752:2.3579671 2753:1.790439 2756:1.0867535 2758:3.8080754 2761:1.2101246 2765:7.3396077 2766:2.5115654 2767:3.8848577 2768:0.70457965 2775:0.89389974 2778:3.8134749 2788:0.48252535 2792:2.7109396 2793:1.862757 2799:1.3055003 2802:2.0251043 2803:1.1022397 2805:0.02698534 2807:3.245908 2809:2.0299299 2812:3.400708 2814:0.71765035 2816:0.12932825 2821:2.2335906 2826:0.55925179 2833:0.5281781 2834:1.0534999 2837:0.3431806 2840:0.64205921 2842:1.49818 2848:0.079024345 2849:3.9475334 2873:1.1282102 2879:0.0016963482 2882:2.9368944 2885:3.7897115 2887:1.1777673 2888:1.7234695 2894:3.0936496 2895:0.02480799 2901:1.1634598 2904:0.28919011 2909:1.0141565 2929:1.4292601 2930:0.42099661 2932:1.0501554 2934:1.8839005 2939:0.20176031 2949:2.9370117 2950:0.36343861 2952:0.57608348 2955:0.73877656 2957:5.5059094 2963:0.02893725 2970:2.1870623 2976:2.0647783 2978:6.0595951 2981:1.8208064 2982:0.018730104 2986:2.0370779 2993:1.5336399 3001:1.6425046 3003:1.2190491 3010:2.167136 3012:0.032873034 3028:0.6951496 3032:0.59668905 3034:2.3139338 3035:2.4387589 3036:0.67554164 3037:1.3108107 3039:2.6475027 3047:3.7416015 3052:1.1425323 3056:1.3472662 3060:1.5672334 3062:0.97615421 3063:0.46140802 3073:2.9669175 3081:0.32394925 3087:2.4594729 3089:2.7502108 3105:3.1114902 3119:1.0776346 3123:0.53124452 3124:0.36387438 3129:3.0305867 3133:2.9741423 3137:1.5144849 3144:3.3464003 3152:3.3375924 3157:0.69458747 3159:0.95805228 3161:1.961207 3162:0.023532882 3166:1.3042383 3174:2.0978248 3179:1.3773913 3182:4.2228255 3197:1.7284859 3198:2.6026947 3223:1.4561858 3232:0.12351127 3233:3.570225 3245:0.96895182 3249:0.15015191 3259:1.320599 3260:1.1519616 3267:4.0366292 3282:3.704576 3284:0.7386958 3285:0.63247609 3287:0.96865094 3290:1.2542316 3291:1.7354505 3293:0.026436202 3298:7.3756833 3310:2.4004714 3332:1.8205374 3334:5.5141082 3338:3.5143342 3341:0.21684676 3342:0.19949171 3344:1.7949898 3345:1.1047728 3347:0.86293697 3348:0.96717691 3349:2.5278275 3361:1.7747869 3363:1.5968101 3366:0.37123996 3375:1.2799003 3377:2.1629069 3382:1.5312692 3383:1.7684963 3388:2.7910421 3392:1.4233223 3408:0.5352385 3413:2.215584 3415:0.16686158 3422:0.36502331 3424:0.028520674 3425:3.8851728 3431:0.91749299 3436:0.93785936 3438:3.3270478 3443:0.27330425 3444:0.14580807 3446:3.3113914 3448:3.9166398 3449:2.4755397 3450:2.5350664 3455:1.7464855 3460:1.1137148 3467:1.495635 3468:0.85738814 3484:0.20289376 3486:0.24170452 3491:1.3031247 3493:1.6416682 3496:0.37783673 3500:0.37457672 3503:0.4677186 3508:1.329628 3509:0.5136342 3523:0.14565922 3526:0.0090963244 3528:0.74037695 3529:1.094964 3534:2.001683 3539:1.5239575 3547:2.0487156 3548:1.3295252 3549:3.2132866 3555:0.14804444 3560:1.8490502 3564:1.8226935 3566:0.76962113 3573:0.12740795 3591:2.4341118 3593:0.90560693 3594:0.64908803 3598:4.7184315 3604:1.7970536 3607:3.024513 3608:3.3244796 3624:0.67885089 3627:0.99038517 3631:1.9425337 3636:0.090669364 3643:1.1640952 3644:4.9110293 3650:2.443208 3658:0.87702823 3665:1.1743897 3667:4.7523041 3669:1.5275098 3670:2.4644585 3674:0.58155513 3676:0.77112669 3677:0.020876855 3683:0.66991246 3689:0.10181148 3690:1.1901007 3691:0.93713737 3692:0.57764059 3699:2.1431806 3703:0.064309835 3712:1.4514056 3720:2.2258353 3724:0.1847194 3725:2.0230916 3727:2.0386558 3744:0.19239213 3751:0.34403956 3752:0.34694535 3753:2.1322005 3756:0.19066125 3767:1.1184323 3772:1.9320281 3773:1.1085532 3777:3.5324335 3783:2.2592127 3789:1.8354781 3792:0.26503482 3793:5.386724 3795:3.7358327 3797:1.0604291 3802:0.6624465 3810:1.3482493 3812:2.8687794 3817:0.14218268 3818:3.0663469 3824:1.3567419 3831:0.96806788 3834:2.763062 3836:0.52087277 3837:0.051494598 3841:0.70198965 3845:1.1103852 3860:2.0290844 3861:2.3155098 3862:1.3694683 3863:0.045226485 3864:2.9568441 3872:0.12464534 3876:4.4902229 3877:3.0162592 3886:1.5940669 3891:2.5676818 3895:1.1050185 3901:0.88788629 3906:2.090975 3907:3.125701 3913:0.20216841 3917:2.1139905 3937:1.3832693 3941:0.58701885 3942:0.27815932 3948:0.40157956 3950:3.0644097 3951:0.72221339 3952:1.8963082 3957:2.0529668 3963:2.7242324 3968:0.8245762 3969:1.013911 3970:1.9448365 3974:0.45861897 3978:2.981014 3980:1.8188541 3988:5.2235098 4000:7.0328913 4003:4.5392265 4004:1.4142444 4005:1.3270612 4008:1.2337525 4010:1.648249 4014:0.64136153 4018:2.1856682 4021:3.9494693 4023:3.0663433 4031:1.8851361 4032:2.6822355 4042:0.10168396 4046:1.4870019 4050:0.81334305 4055:3.9974494 4058:0.068942577 4068:0.66879553 4070:3.6205552 4071:0.65955251 4074:1.3969471 4079:1.9077268 4084:1.6252465 4085:1.2477975 4088:1.4648504 4089:3.4470017 4094:0.83785248 4095:0.2531665 4096:1.3156264 
0.04681914712238618 6:1.906292 20:4.1253214 21:1.9373485 25:0.45232779 27:2.1719856 30:0.11334808 39:2.1300247 47:4.4455967 62:0.13638848 69:4.8211255 77:1.4278252 81:0.34989017 86:3.3660641 94:0.41743532 102:0.077348933 103:1.970423 105:4.0626678 107:0.076755702 108:0.67086172 110:1.8677449 112:0.72851145 113:0.0017164648 114:1.9123513 115:1.6189003 122:0.35374272 123:1.1663761 125:2.9880557 126:2.4967041 145:4.1331244 147:1.759681 150:2.2459774 156:1.8245628 159:2.0210121 163:0.38977334 164:2.3910904 171:1.2977537 172:2.4188652 173:1.336213 174:0.82335889 180:2.523232 182:1.5768597 184:4.8216286 188:0.4485262 190:6.7215247 191:0.57105672 196:2.9771309 197:0.71465921 200:6.6932545 209:4.952487 210:8.737113 211:1.6571655 217:2.4496722 218:3.5775385 225:0.73556697 228:0.89039743 232:0.030601978 239:3.5306172 241:2.0985935 245:0.28093034 246:4.1785202 247:2.9089706 249:4.1514091 250:1.8934847 252:3.3979344 258:3.2302315 261:9.2336807 265:3.3825362 267:4.9389887 275:0.42297494 287:0.10317881 290:0.59515369 297:2.3423505 298:1.5913618 303:0.063068628 304:0.17128767 307:2.2540998 312:4.5931578 315:1.1243993 317:0.59625512 323:6.0714726 324:0.40566039 326:0.26608789 328:3.9907947 338:1.2101644 353:6.2353458 356:2.2196116 358:2.601207 360:0.20780125 374:1.7382842 379:0.35431588 388:1.3094434 391:1.5472114 394:2.1377802 397:3.5798991 420:1.9617642 434:2.1599846 436:4.3456469 454:2.1334832 463:4.9737544 464:0.50073481 471:1.7304841 473:1.076815 482:9.2068672 483:1.412791 484:4.1631413 485:0.78672892 489:0.67318505 505:2.002701 509:0.18575367 511:2.6849313 527:2.5850282 529:0.87318569 552:2.637671 553:0.010317832 555:1.0093772 557:3.4620252 559:0.91331899 560:1.6023829 572:4.3853993 574:1.5359939 575:1.6371074 576:0.54486561 577:4.2303085 580:0.35570085 581:2.5366614 593:3.1420066 601:0.26805913 607:0.52377236 609:1.259644 611:2.3172441 612:2.8335385 619:0.84005654 624:1.6506896 641:0.81352049 642:2.7132602 645:1.891608 646:0.069743335 650:0.73772645 651:1.8765246 653:1.6530435 656:0.11791329 657:0.55327737 658:0.056053787 662:0.11309601 664:3.1502292 671:0.65138817 672:3.552927 679:0.91460276 682:3.4262033 683:2.7721 686:1.9340584 690:1.4286314 701:1.1814942 703:0.061097696 705:1.2139714 715:0.26860821 720:6.2281823 721:0.89728427 726:1.7524362 730:4.9326463 739:4.186492 740:0.43294132 742:1.5161474 748:0.52433878 755:1.6670591 766:0.45786679 777:8.1746864 782:2.497545 788:1.1311276 798:1.774316 805:1.5421424 808:1.0399511 812:4.1874938 814:0.40522468 823:0.20148176 838:1.3464137 839:1.644552 840:0.51368207 842:1.8863654 863:4.4793148 865:2.7125554 868:5.6068263 878:1.9886737 882:0.31862041 886:0.67362404 888:0.76283312 903:0.44696188 912:3.3810053 922:1.5369258 928:4.2465916 932:1.6783556 933:0.37343296 944:3.3994799 948:2.0160596 952:1.5816897 954:0.65847307 958:8.0826778 965:3.0629377 966:4.0115976 967:1.4987042 974:0.32236999 989:2.9694068 993:1.6694907 996:0.77620816 999:1.8685621 1001:0.41301665 1002:0.30432713 1013:0.19813374 1014:2.4310296 1015:1.0944602 1018:4.8356781 1019:0.80031556 1023:3.1426988 1032:2.8962803 1056:1.1149144 1061:1.4479792 1062:2.1453192 1074:0.0063109398 1080:2.9654312 1087:2.7083192 1090:2.5041883 1094:1.0659218 1096:4.0727811 1102:4.7951159 1108:1.0427216 1124:5.4088664 1125:2.0447905 1134:0.60725468 1140:0.026876777 1155:3.2709689 1159:2.1901982 1163:0.61563313 1168:0.78985363 1176:2.6070015 1177:0.44875908 1189:3.5022366 1192:2.5238311 1194:0.65717465 1208:1.8449509 1215:1.4020908 1217:1.4246898 1218:0.88743144 1220:0.45509005 1226:3.3550532 1233:0.068452165 1234:1.6792359 1237:0.20461205 1238:3.7786014 1242:3.337579 1250:5.3634658 1251:2.1257656 1253:7.6108699 1269:3.1873171 1282:1.7951339 1283:5.718503 1286:6.6124296 1299:1.6844757 1302:0.64410031 1309:5.2920256 1319:1.1660615 1320:5.2700653 1325:4.1374187 1336:0.21644831 1342:1.2088101 1357:2.5854297 1359:5.4009686 1365:0.042181641 1368:4.8272972 1372:0.30404556 1375:1.9429581 1379:0.66734165 1386:0.13264626 1387:6.6346278 1393:2.0424609 1395:2.8765197 1400:1.7563887 1406:4.1203032 1420:2.0036616 1422:1.49509 1433:6.6064525 1434:0.1391345 1435:2.1055641 1441:6.9319162 1442:0.051234405 1445:0.25209153 1452:1.1092899 1458:2.1660206 1463:0.18169607 1467:3.8899832 1470:5.7999239 1471:5.8606882 1480:0.73673248 1484:1.257345 1489:1.9759798 1506:0.020699054 1511:0.84342456 1514:1.1949106 1515:0.094326884 1520:1.5483485 1523:0.86371422 1525:3.1797557 1526:1.6738963 1533:1.1593063 1543:1.1731129 1550:2.8132162 1556:0.015473604 1560:2.1335537 1562:1.1846311 1567:3.1893845 1569:1.0033532 1576:0.35968345 1580:0.47305319 1581:0.33551708 1586:1.8844197 1588:0.077906638 1597:0.054926634 1598:1.1730087 1600:1.7716618 1604:2.405719 1613:4.1044655 1622:0.11062691 1624:5.5429192 1625:3.1783319 1626:0.20374191 1629:1.3148948 1637:3.6202648 1653:3.4551232 1659:4.7841587 1673:1.3289607 1677:2.7999885 1686:1.1778737 1691:3.3317707 1695:2.1541204 1696:5.6171885 1705:9.0173054 1707:4.5057125 1708:0.42943275 1710:0.36811659 1714:1.4217387 1730:2.9186716 1733:2.2057228 1737:5.6807313 1744:2.0652108 1747:2.36677 1748:2.070895 1754:2.1414771 1758:1.5489261 1762:8.3204393 1772:0.99230957 1777:0.46517804 1780:1.5425138 1782:0.17536691 1788:1.7051127 1790:3.5682535 1794:7.8954206 1799:0.13909584 1803:0.64918959 1806:3.1718802 1811:0.43046966 1812:5.4670157 1817:1.4087269 1820:1.5668945 1830:0.35290238 1844:0.13727413 1846:1.3517336 1855:1.3482609 1860:1.5937564 1871:0.20622352 1881:3.2054737 1887:0.54844153 1889:2.670543 1901:2.1561234 1904:1.1726868 1911:0.97219718 1923:0.81541669 1926:2.5845282 1938:1.8774353 1943:1.7668459 1966:4.598999 1968:1.9936258 1972:9.9474936 1975:1.2284433 1976:1.1473739 1982:0.83968556 1990:2.148623 1993:1.9767463 1997:2.5708976 1998:0.034474224 2000:5.0847282 2005:0.99825156 2006:1.8954092 2012:2.5035264 2020:2.0894105 2021:1.2835023 2027:1.2377059 2031:2.460551 2042:1.102013 2048:0.80675399 2049:3.9419267 2068:1.4195664 2069:1.009094 2070:0.69549263 2075:0.039061382 2079:4.2214789 2083:1.1235855 2088:0.8415302 2092:0.47515237 2097:2.7606983 2100:2.8377056 2102:7.3364038 2107:0.7920059 2120:1.6059612 2121:2.1741393 2128:0.41682756 2140:3.2228186 2144:1.7980616 2155:2.0203543 2159:0.47401425 2160:1.7706301 2166:0.084039658 2179:1.4293053 2181:0.81814861 2186:4.0515232 2188:3.5277257 2202:0.035718799 2203:5.6162133 2206:0.65690112 2224:0.77598381 2229:0.63089323 2230:2.2571981 2234:0.36045745 2239:1.4812275 2240:2.8805623 2245:0.04592678 2250:0.29011011 2255:3.4261265 2262:0.92487931 2267:1.5985622 2270:1.0818231 2272:0.070208192 2275:2.7295291 2280:0.84693897 2286:0.62974083 2290:0.37760216 2297:0.52991927 2303:1.3736656 2305:1.2475299 2307:1.4764361 2317:2.0512693 2318:0.61530226 2331:4.4997921 2337:4.5736713 2344:0.076026797 2348:2.7867529 2358:0.6691891 2364:4.0313148 2378:0.27424803 2381:1.0873603 2386:1.9997784 2393:3.0530682 2401:1.0432154 2406:3.373158 2417:0.84849083 2424:1.0183067 2431:3.3102732 2432:4.9712553 2434:1.0347911 2435:2.6745045 2436:3.6219788 2442:0.70199406 2446:5.8393292 2452:2.5904937 2457:1.0919337 2470:3.5927899 2477:1.6919146 2480:0.6545642 2486:0.51991707 2488:1.0458424 2491:1.5305877 2499:3.319242 2512:0.45286733 2513:6.2225766 2520:6.8209524 2522:4.1542664 2531:1.317196 2533:0.7832424 2536:0.78860337 2539:0.64060885 2545:3.470335 2553:0.92600018 2558:2.8635495 2561:2.0422873 2562:3.77618 2570:3.5782309 2574:1.143762 2576:1.0863539 2578:2.6760738 2591:1.1467211 2614:4.0755277 2621:0.69644225 2622:0.048659921 2626:0.39225629 2636:1.0565784 2637:8.7375078 2643:2.7019472 2646:2.3109655 2649:0.015993446 2652:0.38946402 2656:1.053225 2667:1.2131709 2669:2.9286587 2672:0.42455131 2674:2.1590734 2678:0.35058621 2687:2.3213634 2688:2.3240733 2689:3.7371063 2691:0.016367972 2695:0.9763847 2698:2.59729 2707:1.7896477 2714:2.9804192 2719:3.8002412 2724:1.6488119 2725:0.073516697 2731:0.80187321 2736:1.3888073 2745:0.14536366 2746:3.3330734 2750:1.7953098 2752:6.580276 2753:3.4555464 2758:3.2664497 2765:5.0062251 2766:5.3366623 2767:3.4868407 2775:1.4623863 2777:0.9690901 2778:4.4923463 2787:1.4817514 2788:1.3568567 2790:1.186819 2792:1.4259363 2793:2.4941659 2802:3.4398282 2805:0.22924775 2809:4.9545541 2812:2.0881279 2814:1.8135461 2816:2.2391412 2826:0.29154536 2834:0.77479869 2840:0.91640311 2842:2.5218389 2849:5.1276903 2853:0.25428426 2870:0.56539279 2873:0.56903154 2879:0.12476012 2882:0.68142343 2885:3.9213521 2888:0.85046667 2892:1.6280404 2894:0.44618419 2901:1.7357391 2904:2.9202654 2909:0.95706898 2929:4.2917905 2930:0.93482602 2932:3.6809769 2948:0.74125665 2949:2.5472887 2950:0.58683783 2957:11.146376 2958:2.1474431 2976:1.7639961 2978:4.4527931 2981:4.6570897 2982:3.6388009 2993:3.9138165 2994:0.42494026 2997:3.3989427 3001:6.7967367 3003:3.1396685 3010:3.9793525 3032:3.6243665 3035:4.1515098 3039:4.0016041 3041:0.27109689 3047:8.0808525 3048:1.2557936 3052:4.666048 3056:2.749197 3062:1.7601295 3065:2.595494 3087:5.4320397 3089:0.74433041 3105:5.3801975 3129:2.7394085 3133:3.4050841 3144:3.3512037 3152:6.0068421 3159:3.3444791 3161:2.639802 3162:1.4161906 3165:0.91059804 3174:9.7808619 3179:0.12317297 3182:3.5126445 3188:0.36283547 3197:2.7131176 3198:2.1324699 3205:1.3116673 3220:0.21667579 3223:1.4268486 3233:4.2321677 3245:1.6563864 3249:4.0851297 3251:1.1810261 3253:0.76417989 3260:1.6471207 3267:4.9776058 3282:1.1358478 3291:4.1669388 3293:4.1671772 3298:3.2936196 3299:0.12511308 3302:1.5797997 3310:1.1221429 3321:0.77151632 3332:0.06392619 3334:2.7510111 3338:1.129099 3342:0.90001792 3347:0.23714429 3349:6.7260809 3355:2.4595895 3358:0.072491147 3361:4.2592764 3363:3.359647 3367:2.0708499 3375:1.1683941 3377:0.79599774 3382:3.2086134 3383:1.1421726 3388:9.3068686 3392:2.3091722 3408:0.17290062 3413:1.4112879 3422:0.67737049 3424:2.3137734 3425:2.1109664 3427:0.49382612 3428:0.87067705 3436:2.7460878 3437:2.189512 3438:1.6452036 3448:0.6935184 3449:4.136837 3450:0.42808503 3457:0.19927184 3458:2.7340026 3467:2.1326079 3471:1.5094955 3484:0.28109038 3491:3.2512989 3494:1.7752253 3496:5.6977577 3500:0.48738363 3505:2.9900949 3508:7.1029038 3509:1.3397708 3529:0.57562298 3531:1.1291952 3539:3.7122583 3548:1.23575 3549:3.1296144 3555:0.95733684 3560:4.5021462 3564:4.9544091 3569:4.1351762 3591:3.2173793 3593:0.33945376 3594:1.7335432 3598:0.21588995 3601:0.77061963 3603:1.243206 3604:2.1631289 3608:4.3526921 3627:1.3226216 3631:2.3666911 3643:0.32175502 3644:8.3282566 3658:1.8406348 3667:2.6969173 3669:0.93698752 3670:1.4473615 3683:3.6309671 3690:1.3146806 3691:0.18868311 3693:0.7973057 3699:0.19846418 3702:0.28297338 3703:4.7887015 3712:2.9968243 3718:1.0432611 3720:1.3644156 3722:0.46042943 3724:1.5731039 3727:0.062303826 3732:0.79618818 3738:1.5996403 3752:0.48328924 3753:0.67506129 3772:1.6233996 3777:2.3818913 3779:0.55803317 3783:1.1922518 3789:3.655664 3793:6.1234198 3795:3.0040927 3796:1.3506951 3797:1.8271191 3802:2.824661 3812:0.4022499 3818:3.9272184 3824:4.3733063 3831:1.8760079 3836:2.7097979 3838:1.3320606 3841:2.7447872 3848:0.80492759 3849:0.86410195 3850:0.72453588 3862:1.2311394 3863:0.17224516 3864:3.7470286 3876:6.2246494 3877:1.7670552 3878:0.7165941 3886:0.77084935 3891:2.4820035 3901:1.0474324 3906:1.1046424 3907:5.8979468 3913:0.98838377 3914:0.14792159 3917:0.41650921 3930:0.8919341 3937:3.2549736 3938:0.27560565 3950:1.6469833 3951:3.4958453 3952:3.4224639 3955:1.7221231 3957:0.46207327 3963:0.97387278 3969:1.7416252 3978:4.3508239 3988:3.7995963 4000:2.0983248 4001:0.66702235 4003:4.2317762 4005:1.2014488 4013:1.1329018 4018:3.5985062 4021:3.4327371 4023:6.0840912 4031:1.944064 4032:2.2763529 4034:1.5360962 4042:2.5810874 4046:0.056661785 4051:1.1494821 4055:3.1955631 4070:3.3746257 4071:0.71907467 4079:0.6534633 4084:0.43541065 4088:1.4922299 
0.1917135350917786 5:1.9355062 9:0.62598395 21:0.058761679 27:1.9768683 29:0.22179857 32:0.61694247 39:5.2027206 44:0.22331275 47:1.7936288 86:1.4879979 94:1.3358845 95:0.13339233 103:2.9606113 105:7.139194 112:0.62178928 115:2.950233 123:1.1742823 126:0.56898183 145:4.4958887 147:0.35437492 150:1.7650971 155:2.2164989 156:1.9389695 163:1.2550678 170:2.8406711 172:2.6522076 178:1.7947477 184:4.8845353 188:0.21732827 190:3.9516051 200:1.8903323 209:0.74954307 210:5.6430225 218:1.1244454 225:0.64867443 231:1.7518889 233:2.4391046 238:1.106806 239:0.1209636 241:1.7868806 243:0.42876607 246:0.61870706 247:3.7701821 249:1.7686919 252:1.3907356 258:3.8414192 259:1.920081 261:7.1277685 265:6.0227909 267:5.1520967 275:2.0564489 290:2.8331237 302:2.8746037 312:0.3139616 315:0.20383047 317:2.1743836 323:2.6457691 324:0.064767659 328:1.3736651 353:2.2099047 356:2.1215675 358:4.4123702 359:1.3351521 379:0.76426226 385:1.0734465 388:0.55896437 393:2.6531527 394:1.891724 412:1.6149809 420:2.8673499 422:1.1247267 427:1.7430277 431:2.5583038 432:1.7291938 434:2.238162 436:4.1989098 438:0.29544777 454:3.1367092 463:2.0345991 472:1.3002827 482:7.0389242 484:1.7496394 485:3.3015368 490:1.4312867 505:0.79670364 511:3.1917644 537:0.53190625 552:3.0714056 557:1.0037529 560:1.6888766 562:1.0501412 572:7.0154414 574:6.7333412 575:0.28791812 576:1.9968166 577:3.8364456 595:2.6425309 597:0.30097312 607:0.91869962 609:0.63507414 611:3.0984883 619:1.4802337 624:0.047187962 639:1.5992595 641:3.4724164 645:0.19835304 650:1.8765783 651:1.2866808 653:3.1266108 654:3.1876211 657:2.2416639 658:2.5692961 664:0.46769172 672:6.5089507 679:0.33618173 682:4.9507818 705:0.90318066 713:0.085101753 715:0.84942067 720:4.7162218 726:0.89569795 730:1.529976 735:0.58971328 737:1.6645042 738:1.8280433 739:0.16908503 740:2.4454679 742:1.3377594 748:3.9193792 755:0.10205686 774:1.2684606 777:5.5189619 782:0.23727152 788:2.8404636 794:0.32004982 799:0.72380859 808:1.753603 812:1.0278865 814:7.9450359 820:0.11503245 833:3.0500224 839:4.2835493 842:4.1213665 863:4.4136157 865:3.6193347 868:6.063621 871:1.7391186 882:1.9700627 886:2.4691031 912:0.95699751 918:0.91850019 928:1.7006044 930:0.20443442 932:0.98707092 933:1.3735266 943:2.6283898 944:6.2044196 953:3.9412503 958:2.4328439 966:2.0340848 982:2.9938586 989:2.3425527 990:0.14027926 993:1.4422033 1002:2.2225585 1013:1.0737146 1014:5.8893852 1015:0.87388688 1018:6.7760334 1019:2.8394744 1023:2.3688862 1032:1.0444518 1036:1.0737231 1038:0.87988776 1041:3.7772255 1062:1.408617 1067:2.4519887 1069:0.13144383 1075:0.46902803 1080:1.8714037 1096:3.660363 1108:3.4023266 1124:4.2393918 1125:2.4309499 1130:0.09831468 1155:2.9625082 1159:1.3081671 1169:2.6845868 1177:1.3242491 1181:1.0904043 1182:1.1020668 1188:0.93582451 1194:0.66255891 1208:0.29451612 1217:2.1807897 1227:0.64899445 1236:1.6781424 1242:3.0516255 1250:3.7441306 1251:2.4183776 1253:4.9248505 1273:0.03445074 1281:0.087740153 1283:3.631423 1286:2.8407166 1288:3.7996793 1299:0.91513765 1309:8.9733143 1320:8.9878502 1323:0.13774638 1328:0.13317055 1335:1.8875153 1336:6.9218102 1342:0.42260963 1357:2.2467561 1359:3.2275603 1365:1.6130998 1368:3.1782026 1375:6.4878755 1386:3.2803149 1387:2.1886849 1395:2.780128 1400:4.9308076 1406:1.8703167 1409:3.1205478 1411:0.018909425 1420:1.2816882 1422:2.8178296 1433:5.0094247 1441:4.6493192 1452:1.3007271 1458:3.5842507 1463:0.77525723 1467:5.662837 1470:3.167803 1471:6.0268669 1474:1.2590284 1484:1.3199255 1486:1.6257789 1493:0.71088028 1495:1.4216876 1514:5.5354953 1520:2.1925101 1523:4.0878863 1525:2.2817671 1526:1.1156578 1550:4.5744667 1560:1.5432953 1562:1.4751134 1567:0.20441753 1569:3.0035851 1576:0.04708378 1580:3.1435149 1586:5.339642 1600:0.17682028 1605:1.287508 1606:1.1120073 1613:9.9465446 1617:0.14509499 1620:0.92142564 1622:1.8490751 1624:9.7404556 1625:0.5296334 1626:3.0382981 1627:0.41468197 1629:0.27595702 1643:2.7457776 1653:5.2721276 1659:6.9031525 1661:1.8510813 1662:1.4295762 1677:0.34668079 1691:1.5978734 1695:1.4497076 1696:5.0245709 1699:1.0159307 1705:8.9079237 1707:1.6624143 1708:3.7646773 1718:1.6283913 1730:0.89418167 1737:5.3693419 1744:1.1274041 1748:3.400259 1752:0.64607894 1758:1.100286 1762:8.6146231 1768:1.6187946 1778:1.7546319 1780:1.140604 1782:0.28953376 1794:5.8504086 1796:0.22826412 1803:0.67284679 1806:2.6942935 1811:0.6200214 1812:2.1827064 1817:2.7396457 1820:0.33620846 1837:0.95773101 1844:3.7323873 1846:0.35604808 1860:4.4788456 1870:1.5030085 1871:1.8859371 1878:0.3571727 1889:2.3724618 1904:2.8666298 1906:0.32216907 1923:1.0442107 1926:3.7665286 1938:0.82533026 1943:0.062868655 1948:0.066847175 1972:4.6148047 1976:0.13298512 1982:0.37537488 1990:1.7845235 1995:2.0428922 1998:1.0472323 2000:5.8516464 2005:0.81070781 2006:0.98291862 2012:3.5726438 2041:0.70576024 2042:0.90476269 2048:0.24215855 2049:0.2418765 2055:2.4632885 2068:0.26767564 2069:3.8742177 2073:0.98680741 2079:5.7768817 2092:0.51545292 2097:1.0721487 2102:6.098103 2106:0.25918171 2116:2.8810422 2120:1.613663 2123:0.59082443 2127:1.2308544 2143:0.18799748 2144:0.0030193031 2153:2.8408668 2155:1.656942 2159:2.0012102 2160:0.70771372 2164:1.7523053 2168:4.0696306 2186:0.27164209 2188:1.2179255 2203:0.31511936 2206:2.7825994 2211:0.77086437 2224:5.1587586 2235:0.469598 2237:1.9254181 2238:0.26792902 2240:3.3219995 2245:0.57869339 2253:0.45902851 2254:0.71444702 2255:6.0912833 2257:0.62877274 2272:1.1838466 2278:0.3230432 2288:0.64169472 2305:1.1472529 2317:1.6007144 2318:1.2018099 2331:8.4704247 2337:1.636139 2343:1.1350918 2344:0.10395253 2355:0.053794101 2357:3.5628297 2358:3.3051238 2362:3.4269278 2364:2.9060988 2367:3.4229684 2376:0.40732881 2378:1.3019675 2386:0.29125029 2392:2.7741215 2393:3.9678881 2401:3.347388 2408:0.15248346 2425:1.772368 2431:3.6641536 2432:1.094373 2435:8.0792818 2437:0.21106616 2442:0.44096264 2443:0.64469624 2446:2.1472514 2447:0.13216697 2452:0.63726598 2470:2.5984988 2477:0.099298924 2486:0.15132582 2488:0.43983698 2491:4.8751497 2499:2.1477017 2512:2.8661673 2513:3.5152311 2520:3.6413531 2522:1.0551441 2531:3.114958 2533:0.18968517 2536:5.19733 2545:1.7205864 2553:0.12642026 2561:4.1376653 2562:7.4346313 2563:0.32268587 2569:0.71009648 2570:1.8971316 2572:1.0571985 2576:1.6372705 2579:1.9497172 2581:0.56956136 2591:0.52850187 2594:0.49390528 2595:3.2283282 2614:0.34272689 2617:0.33207366 2622:3.3469491 2626:0.60555202 2628:1.3589826 2636:1.5624386 2637:3.1803787 2642:1.176771 2646:4.2697449 2652:0.30771154 2656:0.39100415 2658:1.6825348 2674:1.2243493 2676:1.9739276 2687:0.76521432 2688:0.81146705 2689:3.9654131 2692:4.2243152 2695:1.5061775 2698:0.47321576 2714:6.9026461 2715:0.45016181 2719:5.6817784 2723:3.4189787 2731:1.4373238 2735:2.4077904 2738:0.098484769 2746:4.0695596 2747:0.40569755 2752:5.2392449 2753:0.53081214 2758:7.7326226 2760:2.8569405 2765:3.7129042 2766:4.1117086 2767:1.0271754 2778:1.230443 2792:2.0748613 2793:1.2202684 2802:2.1079834 2807:2.161459 2809:3.6488705 2812:2.2876515 2816:2.3766775 2828:0.23924774 2829:4.1869392 2840:1.9465265 2842:4.0773706 2849:6.0703425 2851:0.28319082 2858:1.0443295 2867:2.1091535 2871:0.44465834 2879:0.34378541 2887:1.1420517 2888:0.072783522 2903:0.7324388 2904:6.4147391 2929:1.1033969 2932:7.1365318 2934:1.1393933 2937:2.801532 2942:1.7759537 2957:5.2261558 2958:3.9833016 2978:1.5592999 2981:6.0561852 2982:1.3181129 2993:3.9187748 2994:3.1074693 2997:2.4264281 3001:2.4423006 3003:2.6285429 3008:0.27521011 3010:7.3424177 3018:2.2153225 3032:3.5548284 3039:5.5964775 3041:1.218799 3047:7.6704998 3048:3.6282065 3050:0.64477646 3051:0.27882737 3052:4.2350464 3056:0.49087673 3061:3.2163677 3065:2.9847729 3066:0.34278223 3073:0.79318202 3087:4.1490121 3089:0.30288291 3091:1.4620717 3095:0.38076633 3105:3.6152356 3129:1.2147005 3133:2.8538899 3140:1.0005186 3144:0.019604579 3152:4.8110309 3159:1.094291 3161:3.9401412 3164:1.1679475 3174:3.9815073 3179:3.5143411 3182:3.646579 3197:3.0518742 3198:1.1376705 3199:1.6612417 3205:2.6830235 3220:5.1251707 3223:1.1223874 3232:2.3147576 3233:2.4317746 3242:1.5948203 3249:0.75444573 3252:1.2549202 3267:4.2672944 3287:2.0356679 3291:6.7496309 3293:3.5481532 3298:0.20015194 3299:1.1457585 3302:0.043669105 3310:2.831389 3319:3.055897 3334:4.3018708 3342:1.5674342 3349:2.6039855 3355:2.7436428 3361:2.3572659 3363:3.5849657 3367:2.3748751 3383:1.3440007 3388:7.1479235 3392:0.76754367 3404:2.2324786 3410:0.27675423 3418:0.80689371 3422:0.27096641 3424:1.7838962 3425:5.5630479 3438:3.0032277 3449:4.7893548 3457:3.3599677 3458:3.3468978 3476:0.3370105 3478:0.52781177 3489:0.17565739 3491:1.8549397 3493:1.3925645 3494:2.7872562 3496:4.6317568 3500:0.46827793 3504:1.1647487 3508:6.1621146 3516:1.0891702 3534:2.694524 3539:0.74452376 3548:0.38108304 3549:3.8176165 3560:5.455637 3564:1.1430637 3569:3.5869403 3591:9.000452 3593:4.1940012 3594:0.5742079 3598:0.2565667 3601:0.50858682 3603:5.1440816 3608:4.2061925 3614:3.9631572 3617:0.046215966 3631:2.8861127 3632:0.41279572 3643:0.045537643 3644:4.8501592 3666:0.3572861 3669:1.1518774 3670:0.47627881 3687:2.845233 3691:2.10217 3693:0.26602507 3703:0.027465343 3712:1.1021062 3718:1.9519789 3722:0.28216538 3731:0.34970918 3732:1.2163986 3738:1.1232924 3744:0.77845246 3753:0.20774099 3765:2.8828063 3767:1.1919124 3777:4.0284491 3783:3.0583205 3789:6.2567444 3793:4.8558807 3795:3.8971014 3797:5.4003649 3802:6.5166683 3818:4.6059914 3824:1.1171563 3831:3.0315945 3834:2.0706985 3836:2.6512749 3838:2.1886847 3841:0.48328674 3860:4.5138054 3863:0.76139224 3864:1.9520901 3871:0.16236234 3876:9.4876003 3877:2.6631215 3878:1.107224 3884:0.20224316 3886:0.89889896 3891:6.0835752 3895:1.0376728 3907:2.4268942 3913:1.1920909 3917:0.65280634 3937:5.1617208 3945:0.015600923 3948:0.90897858 3950:0.51696587 3952:0.025926113 3954:0.29001194 3963:0.17727748 3967:1.1497355 3969:3.4335148 3972:0.20625961 3978:1.213377 3981:0.26111192 3988:5.4078364 4000:3.1110778 4003:0.041081093 4005:0.15583307 4011:4.5859184 4018:3.8571877 4021:4.9900923 4023:1.4386218 4024:1.511644 4031:3.5466261 4032:5.9029322 4034:3.7651975 4042:2.1781986 4043:1.2180076 4050:0.71210802 4051:0.57007939 4055:2.8447616 4071:0.19533892 4088:3.6426296 4090:1.9513712 4095:1.8421286 4096:0.32733464 
0.7171230507733488 5:2.0896211 20:2.5651751 26:1.776069 27:3.0395639 29:2.1731265 32:1.3817041 39:3.2423491 42:1.8222157 45:0.74743783 46:0.60613674 47:2.0100484 77:0.61179835 84:0.26429766 86:1.3200835 100:1.1129646 103:2.8519464 105:3.3406706 112:2.3973327 113:0.24324465 114:0.60979003 115:1.960131 123:3.4292471 125:1.6747226 126:2.4771779 130:0.2752915 150:1.0469881 154:0.81910247 155:0.89560282 156:1.5958259 161:0.5430336 163:1.2717909 164:0.47240436 172:1.58631 173:2.039608 174:0.286863 184:3.231257 188:0.93145788 190:3.5245683 200:2.9474938 209:2.8569746 210:4.8840704 211:0.11922688 217:0.26428044 221:0.1876758 228:0.18382245 231:0.89823055 232:0.90231335 233:1.0728672 235:2.0059528 239:0.55581355 243:0.26153207 245:2.156718 246:1.3382621 247:2.5243475 249:0.32041094 252:0.84315437 258:0.7082938 259:0.13493961 261:5.1694517 265:1.0984102 267:2.5258799 276:0.51080823 281:0.20219141 283:2.0605185 288:1.3417757 290:1.4337699 300:0.025669426 304:0.97060066 312:0.60965359 317:3.0367484 323:2.1157625 328:0.50591362 342:0.78813344 353:3.0603657 356:0.45586929 358:2.103651 359:0.35732099 375:0.31394291 379:1.9352472 382:0.71566188 393:2.7598894 394:1.5373656 412:2.2392585 420:1.7087462 427:0.8771292 432:1.4999352 434:1.0273303 436:2.1669664 450:0.78378803 452:0.20087194 453:0.4846864 454:1.1634187 460:0.08397235 463:2.9246006 464:2.1010501 472:1.7543087 482:6.5373797 483:3.7175336 484:3.9616513 485:0.97086763 505:1.6490164 511:2.5408471 515:0.84156758 517:0.12572777 527:2.7433314 529:1.6864104 532:0.1912905 552:4.5696077 553:0.10656212 557:2.29826 560:2.2048073 565:0.4460769 572:3.8933959 574:2.0573845 575:3.7675035 576:1.9348298 577:2.8707907 580:0.29273602 581:1.8296877 598:0.36227107 605:1.4725929 607:0.99082154 609:3.1283619 611:1.7563446 612:3.8428397 615:0.018024385 617:0.67960286 619:4.472301 625:0.17212737 635:0.32886434 639:0.30873308 641:1.4335268 642:1.3484374 645:0.062242731 650:0.12996349 651:1.8083134 653:1.3697658 654:0.47482795 657:2.4490795 658:1.1559325 662:1.0264077 664:2.7273386 666:0.43347934 667:0.58474755 671:1.7269021 672:5.119885 682:3.7294838 699:3.5551996 705:0.41628698 720:4.5065904 723:2.5018039 726:2.6830952 735:2.0911288 737:2.1200249 738:2.6996922 739:2.0453849 740:2.2665992 748:1.2296762 755:1.440776 761:0.11634859 764:0.65149105 766:0.43280056 774:3.1850965 777:4.6757169 778:0.5180099 782:3.9467874 788:2.2559938 791:0.83334148 798:0.95790672 808:0.58073354 812:1.6122068 814:3.5992775 820:0.81678772 839:2.7553079 842:4.1568904 854:0.08879102 863:4.9109154 865:3.3528547 868:2.7912238 871:3.4825044 878:1.1595944 882:1.3989882 886:2.0587509 895:0.14751199 902:1.1696837 912:1.8755149 918:2.1592238 921:1.2080095 928:3.3666275 930:0.30641907 932:0.81300271 933:0.99445993 943:1.2711716 944:4.6439352 945:1.6878417 948:1.5355017 951:1.1880846 953:0.45613605 958:3.4981341 965:0.20941806 966:2.9517658 967:0.39065662 982:0.97941512 989:2.908567 992:0.63361013 993:3.5526793 996:2.1768646 1001:2.4046853 1002:2.5606568 1013:1.6597166 1014:1.5249915 1015:1.7825617 1018:5.7910318 1019:1.8489695 1023:3.368824 1024:1.5796533 1032:0.66078758 1036:0.78712296 1038:0.43819422 1041:1.4847274 1053:1.0413573 1068:0.79474831 1075:0.33371544 1077:1.8017261 1080:1.6058171 1087:2.8714395 1090:3.6403844 1094:1.5703064 1096:3.5805595 1100:0.06241554 1102:0.20862105 1108:3.5972559 1111:0.37543023 1112:0.13450989 1124:3.1389105 1125:2.0596521 1134:1.197106 1136:2.046463 1139:1.1533244 1140:1.1777102 1159:0.6243602 1176:0.85796887 1177:1.2099736 1181:6.1354823 1182:0.88179916 1188:3.7206254 1189:1.1383727 1191:0.047261536 1194:1.5098675 1206:1.348011 1208:1.4307914 1216:0.55618858 1217:1.5964503 1218:0.60823292 1220:0.72971117 1233:0.52067399 1234:2.3235526 1235:1.2860103 1238:0.91347492 1242:3.4505012 1250:2.6549561 1253:6.3061509 1269:4.7516756 1281:1.1361279 1282:4.4479284 1283:4.2433915 1286:1.3659701 1287:1.3191998 1288:4.224699 1291:0.66715539 1305:0.43478757 1306:0.036850631 1309:7.6151152 1313:0.21470833 1318:1.7705991 1319:0.40859669 1320:4.9421954 1323:1.4218793 1326:2.3456595 1328:0.14308953 1336:3.1953387 1352:3.2458842 1357:2.4463747 1359:6.366519 1365:1.0540674 1368:5.6114173 1371:0.1780607 1373:0.35540354 1375:2.2538698 1384:0.71984208 1387:2.4468341 1393:1.2536256 1395:3.35062 1399:0.38154301 1400:3.6194382 1401:0.37231165 1406:5.7644191 1409:1.120787 1410:0.98682332 1411:1.0956964 1420:1.1140902 1422:0.49789634 1429:2.2364984 1432:0.60165155 1433:4.7423348 1434:1.3360965 1435:2.2641854 1441:2.2253094 1443:1.0328929 1452:1.0790317 1456:0.15232468 1458:4.165235 1467:4.4408069 1470:4.3759675 1471:4.2808828 1474:0.24069954 1484:4.6939054 1486:1.3053108 1487:0.76610374 1489:0.31610224 1493:0.051331013 1511:0.0057452023 1514:1.6803243 1515:0.28103429 1520:0.44050276 1521:0.62131 1523:0.95785987 1525:1.3473613 1526:1.2296605 1543:1.6975139 1550:0.5103817 1556:0.41643214 1560:0.40242428 1567:2.5688293 1569:2.0954108 1574:1.2845743 1580:0.36013019 1582:0.006098792 1586:1.9495436 1587:0.90464801 1588:1.7125145 1590:0.37728179 1600:0.93434 1605:2.1678319 1609:0.0011301339 1613:5.5316238 1617:0.67304182 1620:3.1880071 1622:4.3172216 1624:4.5708489 1625:2.8062105 1626:3.0077398 1629:2.2804236 1636:0.67322475 1637:1.926345 1653:3.9055727 1658:0.36262739 1659:4.4325638 1661:2.3330197 1674:0.01464349 1677:2.6949551 1681:0.48344249 1695:0.094481915 1696:5.4811621 1703:0.025961608 1705:7.7069421 1707:3.6456425 1708:0.68802887 1711:0.24365409 1718:0.14138497 1725:0.35608864 1730:2.2162299 1737:3.8401768 1744:1.1585041 1747:1.7373105 1748:2.1877587 1752:0.21219875 1758:1.13257 1762:6.8122478 1768:0.3648572 1772:1.164533 1773:1.6531478 1777:0.23393023 1778:1.1846154 1780:0.71445465 1781:0.46824527 1790:1.0347157 1794:5.7381306 1796:2.2285681 1799:0.92679274 1803:0.097626626 1804:0.16552663 1806:2.7610774 1812:3.1245322 1817:2.3021791 1844:1.5948946 1850:0.4380587 1860:1.0519441 1870:2.6855729 1878:1.5522029 1881:4.6852679 1887:1.7729057 1889:0.74546552 1893:0.25461757 1897:1.3171098 1901:0.25072828 1904:3.6823475 1925:0.94636464 1926:0.72928846 1938:0.071322411 1943:0.62627339 1955:0.80407345 1959:0.77739584 1966:0.51581722 1968:1.2955986 1972:3.8224752 1990:2.9513915 1993:2.1572809 1997:3.0298624 2000:5.6140685 2005:1.8247532 2006:1.1370335 2012:1.7862163 2020:3.8679717 2021:0.32795832 2031:0.12274849 2032:2.8794866 2041:1.2138226 2042:0.88822716 2048:2.4328156 2049:1.5993067 2056:0.60993791 2067:0.18696231 2068:1.0504724 2069:0.29561538 2075:0.15562314 2079:0.81743479 2085:0.22947317 2090:0.28037357 2092:1.1855762 2094:0.63955998 2097:2.4306881 2100:0.6989429 2102:5.6820827 2105:2.960706 2107:1.3868029 2116:1.5944555 2120:0.89852536 2135:2.066318 2140:0.099914096 2144:1.8907151 2148:0.74188668 2153:2.0959604 2155:1.3883913 2157:0.010966718 2159:0.86220264 2160:0.39778215 2166:1.6427889 2168:0.27480724 2179:0.30244201 2186:2.4116597 2188:2.8647592 2203:2.2405663 2211:0.74815142 2224:0.75644457 2229:0.59055638 2230:0.29746717 2237:1.2566602 2240:1.3995697 2244:0.40193057 2250:1.6772624 2257:0.051741779 2267:3.095289 2270:2.0141571 2275:1.3455861 2278:3.336468 2285:1.0204624 2288:0.80216295 2290:1.4206798 2298:1.3294728 2301:0.43185499 2305:3.3087406 2318:1.8913422 2321:0.24068855 2322:0.59156829 2331:5.5627074 2333:0.88700753 2335:0.69676858 2337:1.1134775 2343:1.32814 2348:0.8409822 2358:1.416155 2361:3.0780571 2362:0.61723101 2364:3.9307964 2367:2.474412 2377:0.95701802 2378:0.9050715 2386:0.53855121 2393:3.9021487 2401:0.13220561 2406:2.6150112 2425:2.1169462 2431:2.0124521 2432:4.3164067 2435:6.2600093 2436:0.9143433 2441:2.3268569 2446:5.2999225 2451:0.17674193 2452:2.1394374 2470:4.7010407 2473:0.7168324 2477:3.1948299 2480:0.094202012 2485:0.36012438 2486:1.9769808 2488:1.2850828 2491:1.9808903 2499:4.2927585 2501:0.45161271 2503:0.59942818 2506:1.6211462 2508:0.31701863 2512:1.2167631 2513:0.32425186 2520:5.1100564 2521:0.61212188 2522:0.95565903 2523:0.84679008 2531:3.0301762 2536:3.0474157 2539:0.57577258 2545:0.92263377 2552:0.49071115 2553:0.31548423 2557:0.45496565 2558:0.18374936 2561:2.9290009 2562:4.8772845 2570:1.385282 2575:0.015881926 2576:1.9837635 2579:0.63150823 2589:0.23397692 2591:1.1407859 2594:1.5566082 2595:1.0637751 2604:0.052407771 2621:1.617368 2623:0.9661212 2628:0.80893528 2637:5.7593708 2641:0.19265088 2646:1.7389294 2648:1.1905637 2649:1.1797775 2652:1.0171447 2656:0.51200318 2658:0.52448732 2668:0.10338441 2669:1.8278327 2672:0.081732154 2674:0.12404743 2676:3.0629079 2687:0.96801615 2688:3.563216 2689:2.2252817 2692:2.0563152 2695:0.72202253 2714:5.709446 2715:0.076789171 2719:1.8022443 2723:0.60494262 2731:2.496237 2735:3.4188333 2738:0.87772357 2745:1.3925809 2746:0.72482234 2747:1.938256 2750:0.39572895 2752:2.0545485 2758:6.8990741 2760:2.0269542 2765:1.084727 2766:6.7259893 2767:1.1245565 2768:2.8104 2778:5.4011741 2784:0.9346444 2787:2.4705791 2788:0.30539471 2792:3.4272749 2793:0.88052326 2795:1.8956465 2802:1.6918833 2805:0.78296471 2807:1.2807024 2812:2.4788039 2816:4.242784 2826:0.63919592 2829:1.7797856 2834:2.0969949 2840:0.7182247 2842:2.1256351 2849:1.6837804 2859:0.076314449 2867:1.6130109 2870:0.6955961 2871:0.58443707 2875:0.29806167 2879:0.09000928 2885:0.62587094 2888:1.5399663 2903:1.3998531 2904:4.1671944 2917:0.38582689 2932:5.5358 2934:0.68064547 2937:0.084892869 2949:1.9686092 2950:1.3005841 2957:7.8718038 2958:1.4579465 2962:0.72953606 2966:0.79617405 2976:1.1894788 2981:3.3359461 2982:0.89279199 2986:0.69139564 2993:2.9209807 2994:2.2602739 2997:0.98839593 3001:1.8982366 3003:3.2618706 3008:3.4053915 3010:5.7510796 3018:0.25404269 3032:6.5204306 3039:1.9764761 3040:1.3182316 3041:0.42191714 3047:7.4501181 3050:3.7887905 3051:4.0321655 3052:1.7612691 3056:1.8381915 3059:1.4968996 3065:0.53717977 3070:0.82906032 3087:0.49430752 3089:1.0255389 3091:1.9722347 3103:0.088694692 3105:2.6582804 3129:3.683682 3133:4.1593833 3137:3.4723482 3144:2.498822 3145:1.6281519 3152:3.351258 3159:1.8935024 3161:2.0164866 3170:0.21392664 3174:3.5965452 3177:0.1200614 3182:3.30756 3184:1.4645315 3198:3.84706 3199:2.4782798 3200:0.62157118 3205:0.064722449 3220:1.6553934 3223:1.0885811 3233:1.4225662 3238:0.99701792 3249:4.1379108 3259:0.74614918 3267:6.1905642 3275:0.85512054 3276:0.45593143 3287:1.9169006 3290:1.5873572 3291:6.034771 3293:4.844717 3298:3.2051971 3299:2.9806023 3302:1.4178241 3310:2.6005275 3319:0.31582123 3332:2.9343157 3334:2.3387039 3342:0.0034731477 3348:0.27694511 3349:3.5918767 3355:5.4373603 3356:0.28632644 3361:1.057667 3363:3.6124876 3365:0.50038123 3367:0.66684037 3376:1.1596565 3377:1.1562744 3383:1.774202 3388:5.2450123 3404:1.2645843 3408:0.0054189861 3410:2.7375576 3413:0.057989229 3424:0.15865299 3425:2.8122356 3427:1.5496734 3436:0.92834741 3449:2.4805369 3450:1.7433726 3457:2.5439837 3458:1.023351 3467:0.6024217 3478:0.88444877 3489:0.27001801 3491:3.2477586 3494:3.9183331 3496:3.8802836 3500:1.5728762 3504:2.4305692 3505:2.1286883 3508:5.4323015 3509:0.78149313 3513:0.10998912 3523:0.11590278 3528:0.23905265 3529:1.2961257 3539:3.0632315 3548:0.31201059 3549:2.9531193 3555:0.98062086 3560:3.3324049 3564:1.3539107 3569:3.8963397 3582:0.85055274 3591:4.471395 3592:0.77127069 3593:0.83788705 3594:1.2517643 3598:0.017789209 3601:1.512642 3603:0.83722413 3604:3.6461205 3608:5.4121318 3614:0.60620558 3622:1.5713475 3624:0.1356771 3631:0.27862582 3644:2.9331036 3669:2.2977383 3670:1.9453554 3672:0.55903131 3679:0.42670038 3686:0.3093375 3687:3.3901708 3690:0.062010348 3691:1.8554077 3693:1.2281671 3703:2.2365794 3710:0.18359452 3712:0.025980055 3718:1.6835884 3720:1.0249552 3722:1.0206895 3731:0.96945006 3738:2.1737552 3744:0.2086271 3753:0.82593167 3757:1.233453 3765:2.1797323 3767:1.6328543 3777:4.7212315 3779:0.21127906 3783:1.316936 3789:3.2892816 3792:0.42026201 3793:4.07585 3795:2.0821092 3797:3.345799 3802:3.9902582 3806:1.190928 3811:0.41036355 3813:0.21883082 3818:5.1709714 3824:0.23483832 3831:1.6803261 3833:0.49461055 3835:1.4039918 3836:4.2269073 3838:1.2435734 3860:3.1271319 3861:1.1226435 3862:1.04921 3863:1.743255 3864:3.0569522 3876:5.493084 3877:1.5432904 3878:2.8882923 3886:1.9209707 3891:3.678951 3895:2.5858514 3901:2.2182052 3906:1.9519427 3907:4.094873 3913:1.7953095 3925:0.72006083 3933:0.87208664 3937:2.1255472 3948:1.1050221 3950:0.56880891 3951:4.6540513 3952:2.5430939 3955:0.23122439 3957:1.9933389 3967:0.59294927 3969:3.2503636 3978:2.3979778 3979:0.5677098 3988:3.5783339 4000:5.6484156 4003:0.16828012 4005:0.5724436 4011:2.4419224 4018:0.92288703 4021:3.5692277 4029:1.2170641 4031:0.4524129 4032:3.7097685 4034:0.58594936 4042:4.5763764 4046:0.37606281 4049:0.047323219 4050:2.0239868 4055:3.7913826 4058:0.76378852 4061:1.2232908 4063:0.53675652 4067:0.061540663 4071:1.5942862 4084:0.09847188 4086:1.0069402 4088:3.633574 
